{"learner":{"attributes":{"scikit_learn":"{\"_estimator_type\": \"ranker\"}"},"feature_names":["ALS_score","avg_rating","rating_count"],"feature_types":["float","float","int"],"gradient_booster":{"model":{"cats":{"enc":[],"feature_segments":[],"sorted_idx":[]},"gbtree_model_param":{"num_parallel_tree":"1","num_trees":"100"},"iteration_indptr":[0,1,2,3,4,5,6,7,8,9,10,11,12,13,14,15,16,17,18,19,20,21,22,23,24,25,26,27,28,29,30,31,32,33,34,35,36,37,38,39,40,41,42,43,44,45,46,47,48,49,50,51,52,53,54,55,56,57,58,59,60,61,62,63,64,65,66,67,68,69,70,71,72,73,74,75,76,77,78,79,80,81,82,83,84,85,86,87,88,89,90,91,92,93,94,95,96,97,98,99,100],"tree_info":[0,0,0,0,0,0,0,0,0,0,0,0,0,0,0,0,0,0,0,0,0,0,0,0,0,0,0,0,0,0,0,0,0,0,0,0,0,0,0,0,0,0,0,0,0,0,0,0,0,0,0,0,0,0,0,0,0,0,0,0,0,0,0,0,0,0,0,0,0,0,0,0,0,0,0,0,0,0,0,0,0,0,0,0,0,0,0,0,0,0,0,0,0,0,0,0,0,0,0,0],"trees":[{"base_weights":[6.0499557E-3,7.889656E-2,-7.587661E-1,2.0268911E-1,-2.719768E-1,-8.35002E-2,-4.127375E-1,7.453021E-3,3.3010057E-1,-9.605092E-2,5.7975465E-1,7.365518E-2,-8.813551E-2,1.120304E-1,-6.6024923E-1,8.83943E-3,4.7984302E-1,6.068516E-1,2.3710792E-1,-1.23972505E-1,2.2571245E-1,-8.298105E-2,-2.0409529E-1,1.898929E-1,-4.1173127E-1,5.525371E-1,-3.522463E-2,6.80138E-2,5.1411813E-1,-1.29750585E-2,3.8812216E-2,-3.9655218E-4,-3.689987E-2,3.7804794E-2,6.4166957E-3,2.1028113E-2,-6.3291654E-2,6.946254E-2,1.225054E-2,3.8689226E-2,-4.758611E-2,7.0550404E-2,3.0505195E-2,-4.982496E-2,3.0717326E-2,4.1271087E-2,6.611019E-2],"categories":[],"categories_nodes":[],"categories_segments":[],"categories_sizes":[],"default_left":[0,0,0,0,0,0,0,0,0,0,0,0,0,0,0,0,0,0,0,0,0,0,0,0,0,0,0,0,0,0,0,0,0,0,0,0,0,0,0,0,0,0,0,0,0,0,0],"id":0,"left_children":[1,3,5,7,9,-1,11,13,15,-1,17,-1,-1,19,21,23,25,27,29,31,33,-1,35,37,39,41,43,-1,45,-1,-1,-1,-1,-1,-1,-1,-1,-1,-1,-1,-1,-1,-1,-1,-1,-1,-1],"loss_changes":[3.2812572E1,2.3408306E1,1.0064812E0,9.898054E0,8.30381E1,0E0,6.6943283E0,1.1120037E1,1.1580391E1,0E0,4.456463E-1,0E0,0E0,3.7204006E0,1.4987316E0,5.985453E0,6.1687813E0,4.586792E-2,3.9908493E-1,1.3331523E0,2.270265E0,0E0,1.4072347E0,1.782752E0,1.3959789E0,5.235508E0,3.5223897E0,0E0,1.7116022E-1,0E0,0E0,0E0,0E0,0E0,0E0,0E0,0E0,0E0,0E0,0E0,0E0,0E0,0E0,0E0,0E0,0E0,0E0],"parents":[2147483647,0,0,1,1,2,2,3,3,4,4,6,6,7,7,8,8,10,10,13,13,14,14,15,15,16,16,17,17,18,18,19,19,20,20,22,22,23,23,24,24,25,25,26,26,28,28],"right_children":[2,4,6,8,10,-1,12,14,16,-1,18,-1,-1,20,22,24,26,28,30,32,34,-1,36,38,40,42,44,-1,46,-1,-1,-1,-1,-1,-1,-1,-1,-1,-1,-1,-1,-1,-1,-1,-1,-1,-1],"split_conditions":[4.8556194E0,5E0,5.271784E0,4.0479426E0,4.7382345E0,-8.35002E-2,5.279821E0,4.25E0,3.7222223E0,-9.605092E-2,4.819993E0,7.365518E-2,-8.813551E-2,3.2142856E0,3.862525E0,4.5724463E0,4.6650233E0,4.781605E0,4.838021E0,3E0,3.6E0,-8.298105E-2,4.4375E0,2.5E0,2.5E0,4.5E0,4.7382345E0,6.80138E-2,4.8012457E0,-1.29750585E-2,3.8812216E-2,-3.9655218E-4,-3.689987E-2,3.7804794E-2,6.4166957E-3,2.1028113E-2,-6.3291654E-2,6.946254E-2,1.225054E-2,3.8689226E-2,-4.758611E-2,7.0550404E-2,3.0505195E-2,-4.982496E-2,3.0717326E-2,4.1271087E-2,6.611019E-2],"split_indices":[0,1,0,0,0,0,0,1,1,0,0,0,0,1,0,0,0,0,0,1,1,0,1,1,1,1,0,0,0,0,0,0,0,0,0,0,0,0,0,0,0,0,0,0,0,0,0],"split_type":[0,0,0,0,0,0,0,0,0,0,0,0,0,0,0,0,0,0,0,0,0,0,0,0,0,0,0,0,0,0,0,0,0,0,0,0,0,0,0,0,0,0,0,0,0,0,0],"sum_hessian":[5.8686957E2,5.366518E2,5.021775E1,3.9700555E2,1.3964624E2,3.9993423E1,1.0224324E1,1.5719296E2,2.3981259E2,7.715063E1,6.2495617E1,2.7958124E0,7.4285116E0,1.3662637E2,2.056659E1,7.65784E1,1.6323419E2,5.7201023E1,5.294595E0,4.43876E1,9.223878E1,1.4396123E1,6.1704655E0,5.3916233E1,2.2662167E1,1.4298172E2,2.0252472E1,2.8412516E1,2.8788507E1,1.5849894E0,3.7096055E0,3.0477E1,1.39106E1,4.678288E1,4.5455902E1,3.397266E0,2.7731998E0,5.254218E0,4.8662014E1,1.3104072E0,2.1351759E1,8.722099E1,5.5760723E1,8.4161415E0,1.1836331E1,1.9288685E1,9.499823E0],"tree_param":{"num_deleted":"0","num_feature":"3","num_nodes":"47","size_leaf_vector":"1"}},{"base_weights":[-8.824589E-3,2.9680116E-2,-6.9256777E-1,-2.6483986E-1,7.534205E-2,-4.1879287E-1,-8.3268154E-1,-7.762034E-2,6.898844E-2,5.2461028E-2,4.6265867E-1,-8.764323E-2,3.6770803E-1,-9.189349E-2,-4.349545E-1,-8.9077845E-2,5.442939E-1,1.0541017E-1,-2.9701713E-1,-2.7974647E-2,7.3757577E-1,8.051803E-2,-6.4921476E-2,-7.959326E-2,2.8104154E-2,4.207386E-2,-1.964553E-1,8.7756746E-2,-6.4000174E-2,8.085697E-3,2.688776E-1,-6.182656E-1,1.7155217E-1,5.617192E-2,-6.255014E-1,8.821729E-2,-6.860595E-2,-6.541882E-2,-1.3619653E-2,-8.248902E-3,2.1802358E-2,3.1611323E-2,-1.7108588E-2,-9.059159E-3,-9.042784E-2,2.2005815E-2,-6.447097E-2,-1.9402502E-2,-8.327871E-2],"categories":[],"categories_nodes":[],"categories_segments":[],"categories_sizes":[],"default_left":[0,0,0,0,0,0,0,0,0,0,0,0,0,0,0,0,0,0,0,0,0,0,0,0,0,0,0,0,0,0,0,0,0,0,0,0,0,0,0,0,0,0,0,0,0,0,0,0,0],"id":1,"left_children":[1,3,5,7,9,11,13,-1,15,17,19,-1,21,-1,23,25,27,29,31,33,35,-1,-1,-1,-1,-1,37,-1,-1,39,41,43,45,-1,47,-1,-1,-1,-1,-1,-1,-1,-1,-1,-1,-1,-1,-1,-1],"loss_changes":[2.8617125E1,1.3861597E1,1.8741646E0,2.3675201E1,7.8796563E0,8.1073475E0,8.80558E-1,0E0,6.4073844E0,1.5635263E1,6.7136917E0,0E0,4.375552E0,0E0,2.4334195E0,3.6067507E0,8.954186E0,1.1659987E1,1.6846485E1,6.969654E0,7.159216E0,0E0,0E0,0E0,0E0,0E0,1.3964174E0,0E0,0E0,8.774557E0,5.7385635E0,9.908335E0,1.9638451E0,0E0,7.151532E-1,0E0,0E0,0E0,0E0,0E0,0E0,0E0,0E0,0E0,0E0,0E0,0E0,0E0,0E0],"parents":[2147483647,0,0,1,1,2,2,3,3,4,4,5,5,6,6,8,8,9,9,10,10,12,12,14,14,15,15,16,16,17,17,18,18,19,19,20,20,26,26,29,29,30,30,31,31,32,32,34,34],"right_children":[2,4,6,8,10,12,14,-1,16,18,20,-1,22,-1,24,26,28,30,32,34,36,-1,-1,-1,-1,-1,38,-1,-1,40,42,44,46,-1,48,-1,-1,-1,-1,-1,-1,-1,-1,-1,-1,-1,-1,-1,-1],"split_conditions":[4.8556194E0,3.4935462E0,4.9467826E0,5E0,1.4E1,4.932851E0,8E0,-7.762034E-2,1.8E1,8E0,4.0479426E0,-8.764323E-2,2E0,-9.189349E-2,5.187966E0,6E0,2.6E1,4.537373E0,9E0,1.9E1,4.6650233E0,8.051803E-2,-6.4921476E-2,-7.959326E-2,2.8104154E-2,4.207386E-2,7E0,8.7756746E-2,-6.4000174E-2,4E0,4.819993E0,4.1704617E0,4.6065807E0,5.617192E-2,2E1,8.821729E-2,-6.860595E-2,-6.541882E-2,-1.3619653E-2,-8.248902E-3,2.1802358E-2,3.1611323E-2,-1.7108588E-2,-9.059159E-3,-9.042784E-2,2.2005815E-2,-6.447097E-2,-1.9402502E-2,-8.327871E-2],"split_indices":[0,0,0,2,2,0,2,0,2,2,0,0,2,0,0,2,2,0,2,2,0,0,0,0,0,0,2,0,0,2,0,0,0,0,2,0,0,0,0,0,0,0,0,0,0,0,0,0,0],"split_type":[0,0,0,0,0,0,0,0,0,0,0,0,0,0,0,0,0,0,0,0,0,0,0,0,0,0,0,0,0,0,0,0,0,0,0,0,0,0,0,0,0,0,0,0,0,0,0,0,0],"sum_hessian":[1.0851934E3,1.0282448E3,5.694857E1,1.3737492E2,8.908698E2,2.0629189E1,3.631938E1,5.3736042E1,8.3638885E1,8.422488E2,4.862103E1,1.296875E1,7.6604395E0,2.8769747E1,7.549635E0,6.3375492E1,2.0263395E1,7.3203687E2,1.10211914E2,1.7782885E1,3.0838144E1,5.5018187E0,2.1586206E0,4.9449396E0,2.6046956E0,1.0518149E1,5.2857346E1,1.6015467E1,4.2479286E0,4.595071E2,2.7252975E2,6.519506E1,4.5016853E1,8.980267E0,8.802618E0,2.8340017E1,2.498127E0,5.002376E0,4.785497E1,3.2143546E2,1.3807167E2,2.4636125E2,2.6168482E1,2.3379047E1,4.1816017E1,4.3181236E1,1.8356168E0,3.484815E0,5.317804E0],"tree_param":{"num_deleted":"0","num_feature":"3","num_nodes":"49","size_leaf_vector":"1"}},{"base_weights":[-1.9239996E-2,5.4638278E-2,-2.706392E-1,1.07492514E-1,-4.684747E-1,-8.1489736E-1,1.06856875E-1,5.484404E-2,4.1277662E-1,-1.753979E-1,-6.2990874E-1,-9.0829805E-2,-4.946474E-1,1.9891293E-1,-8.176701E-2,-1.7272557E-1,1.0270911E-1,-4.1960403E-1,5.390758E-1,-8.41026E-2,1.3749307E-1,-7.031646E-1,-3.2788374E-2,1.0926594E-1,-7.579905E-1,-9.768571E-2,2.5125274E-1,8.650397E-3,-5.4312664E-1,1.432025E-1,-6.745118E-2,-6.66198E-1,3.900896E-2,6.9961494E-1,-3.295644E-3,3.670941E-1,-7.224582E-2,-3.18699E-1,-8.784472E-2,6.66567E-2,-6.70121E-2,5.934861E-2,-7.0208795E-2,-8.421493E-2,-4.1944486E-1,-6.33889E-2,-1.0669832E-3,2.802201E-1,-6.530873E-2,-8.879631E-3,5.9885986E-2,-4.427842E-2,-8.14279E-2,6.4449585E-3,4.750154E-2,8.43237E-3,-5.866143E-2,-7.832234E-2,-2.692072E-2,2.9555231E-2,7.538981E-2,5.7910766E-2,-8.760935E-2,-1.6821704E-4,4.4519853E-2,-6.3585513E-3,-5.5162318E-2,-1.4322228E-2,-6.0371596E-2,2.1565733E-2,3.6782157E-2,-7.182493E-2,5.539313E-2],"categories":[],"categories_nodes":[],"categories_segments":[],"categories_sizes":[],"default_left":[0,0,0,0,0,0,0,0,0,0,0,0,0,0,0,0,0,0,0,0,0,0,0,0,0,0,0,0,0,0,0,0,0,0,0,0,0,0,0,0,0,0,0,0,0,0,0,0,0,0,0,0,0,0,0,0,0,0,0,0,0,0,0,0,0,0,0,0,0,0,0,0,0],"id":2,"left_children":[1,3,5,7,9,11,13,15,17,19,21,-1,23,25,-1,27,29,31,33,-1,35,37,39,41,43,45,47,49,51,53,55,57,-1,59,61,63,-1,65,-1,-1,-1,-1,-1,-1,67,-1,-1,69,71,-1,-1,-1,-1,-1,-1,-1,-1,-1,-1,-1,-1,-1,-1,-1,-1,-1,-1,-1,-1,-1,-1,-1,-1],"loss_changes":[1.901043E1,2.1928751E1,4.7847416E1,1.1541654E1,3.3339138E0,2.4018326E0,1.1919739E1,6.7147417E0,1.1336018E1,5.7896085E0,2.0134869E0,0E0,3.8548903E0,1.987351E0,0E0,7.2076845E0,3.514121E0,3.1519585E0,8.029745E0,0E0,4.093998E0,2.511404E0,3.181858E0,3.5895612E0,1.20928764E-1,9.117193E-1,1.0063839E0,4.2492375E0,5.9878063E-1,1.0713393E1,7.806702E0,3.2213736E-1,0E0,1.3375969E0,1.1716592E1,4.6068478E-1,0E0,8.289304E-1,0E0,0E0,0E0,0E0,0E0,0E0,1.8359298E-1,0E0,0E0,4.800787E-1,4.378211E0,0E0,0E0,0E0,0E0,0E0,0E0,0E0,0E0,0E0,0E0,0E0,0E0,0E0,0E0,0E0,0E0,0E0,0E0,0E0,0E0,0E0,0E0,0E0,0E0],"parents":[2147483647,0,0,1,1,2,2,3,3,4,4,5,5,6,6,7,7,8,8,9,9,10,10,12,12,13,13,15,15,16,16,17,17,18,18,20,20,21,21,22,22,23,23,24,24,25,25,26,26,27,27,28,28,29,29,30,30,31,31,33,33,34,34,35,35,37,37,44,44,47,47,48,48],"right_children":[2,4,6,8,10,12,14,16,18,20,22,-1,24,26,-1,28,30,32,34,-1,36,38,40,42,44,46,48,50,52,54,56,58,-1,60,62,64,-1,66,-1,-1,-1,-1,-1,-1,68,-1,-1,70,72,-1,-1,-1,-1,-1,-1,-1,-1,-1,-1,-1,-1,-1,-1,-1,-1,-1,-1,-1,-1,-1,-1,-1,-1],"split_conditions":[4.75E0,4.690822E0,4.7382345E0,4.537373E0,3.5E0,4.537373E0,4.9467826E0,3.4935462E0,3.2142856E0,3E0,5.2396207E0,-9.0829805E-2,5E0,4.760426E0,-8.176701E-2,3.5714285E0,4.3421173E0,4.6650233E0,4.636886E0,-8.41026E-2,5.0477467E0,4.760426E0,5.279821E0,4.6065807E0,4.690822E0,5E0,4.8556194E0,3.5E0,4.142857E0,4.268383E0,4.3076925E0,4.636886E0,3.900896E-2,3.5714285E0,4.4375E0,4.7382345E0,-7.224582E-2,4.142857E0,-8.784472E-2,6.66567E-2,-6.70121E-2,5.934861E-2,-7.0208795E-2,-8.421493E-2,4.7146726E0,-6.33889E-2,-1.0669832E-3,4.8012457E0,4.932851E0,-8.879631E-3,5.9885986E-2,-4.427842E-2,-8.14279E-2,6.4449585E-3,4.750154E-2,8.43237E-3,-5.866143E-2,-7.832234E-2,-2.692072E-2,2.9555231E-2,7.538981E-2,5.7910766E-2,-8.760935E-2,-1.6821704E-4,4.4519853E-2,-6.3585513E-3,-5.5162318E-2,-1.4322228E-2,-6.0371596E-2,2.1565733E-2,3.6782157E-2,-7.182493E-2,5.539313E-2],"split_indices":[1,0,0,0,1,0,0,0,1,1,0,0,1,0,0,1,0,0,0,0,0,0,0,0,0,1,0,1,1,0,1,0,0,1,1,0,0,1,0,0,0,0,0,0,0,0,0,0,0,0,0,0,0,0,0,0,0,0,0,0,0,0,0,0,0,0,0,0,0,0,0,0,0],"split_type":[0,0,0,0,0,0,0,0,0,0,0,0,0,0,0,0,0,0,0,0,0,0,0,0,0,0,0,0,0,0,0,0,0,0,0,0,0,0,0,0,0,0,0,0,0,0,0,0,0,0,0,0,0,0,0,0,0,0,0,0,0,0,0,0,0,0,0,0,0,0,0,0,0],"sum_hessian":[1.0217591E3,7.9029816E2,2.3146095E2,7.184972E2,7.1800934E1,9.43182E1,1.3714276E2,6.138192E2,1.0467796E2,2.6243479E1,4.5557453E1,7.159992E1,2.2718275E1,1.2543765E2,1.1705102E1,1.0621625E2,5.07603E2,1.3484625E1,9.119334E1,7.8518786E0,1.8391602E1,4.0420944E1,5.1365104E0,7.0760827E0,1.5642193E1,1.8685349E1,1.06752304E2,7.195726E1,3.425899E1,4.101558E2,9.744718E1,1.0472442E1,3.0121832E0,7.0141815E1,2.1051525E1,1.4968293E1,3.423308E0,1.3540144E1,2.6880798E1,2.4272165E0,2.7092938E0,4.5995636E0,2.476519E0,1.1336507E1,4.305686E0,1.7314117E0,1.6953936E1,9.790792E1,8.844386E0,6.2489464E1,9.467792E0,2.6927273E1,7.331718E0,3.3244672E2,7.77091E1,7.6051476E1,2.139571E1,7.3367934E0,3.1356483E0,9.070345E0,6.107147E1,1.2828066E1,8.223459E0,2.7871249E0,1.2181168E1,7.069816E0,6.4703283E0,2.4341419E0,1.8715441E0,5.8358902E1,3.954902E1,4.227221E0,4.6171646E0],"tree_param":{"num_deleted":"0","num_feature":"3","num_nodes":"73","size_leaf_vector":"1"}},{"base_weights":[-1.6316226E-2,1.27046425E-2,-5.477736E-1,-1.6879685E-1,7.0620075E-2,-7.823722E-2,-4.597661E-1,-8.1341974E-2,-8.38293E-2,1.2723711E-1,-1.03703305E-1,2.3303139E-1,-6.1934096E-1,3.648451E-1,-1.3601634E-1,-8.835554E-2,2.261176E-1,-8.046352E-1,2.2405155E-1,-5.22076E-2,4.5351785E-2,-3.8057992E-1,-7.939187E-2,-3.9604342E-1,6.634276E-2,-5.9666294E-1,-3.0335115E-2,2.529924E-2,-5.0706106E-1,3.1058377E-1,5.266005E-2,-8.252164E-2,-2.7385876E-2,2.7080268E-1,-1.4214787E-1,-5.621137E-1,2.9085705E-2,-7.8217104E-2,4.9359947E-2,-7.376753E-2,-3.999053E-2,6.2024485E-2,-4.8521063E-3,-1.8032966E-2,1.07544735E-2,-6.836688E-2,-1.4936961E-2,2.4967525E-2,8.428761E-2,-5.6137282E-2,1.8537441E-2,2.3676807E-2,4.0166836E-2,-3.9048586E-2,-4.7977115E-3,-2.1537263E-2,-7.514392E-2],"categories":[],"categories_nodes":[],"categories_segments":[],"categories_sizes":[],"default_left":[0,0,0,0,0,0,0,0,0,0,0,0,0,0,0,0,0,0,0,0,0,0,0,0,0,0,0,0,0,0,0,0,0,0,0,0,0,0,0,0,0,0,0,0,0,0,0,0,0,0,0,0,0,0,0,0,0],"id":3,"left_children":[1,3,5,7,9,-1,11,13,-1,15,17,19,21,23,25,27,29,31,33,-1,-1,35,-1,37,-1,39,41,43,45,47,49,-1,-1,51,53,55,-1,-1,-1,-1,-1,-1,-1,-1,-1,-1,-1,-1,-1,-1,-1,-1,-1,-1,-1,-1,-1],"loss_changes":[1.4969728E1,9.69199E0,6.7788124E-1,1.2992023E1,6.9103565E0,0E0,4.452649E0,4.8894563E0,0E0,1.1274774E1,3.966547E1,1.5724282E0,1.0295277E0,5.2446237E0,8.621244E0,7.9468517E0,5.2907314E0,3.7459946E-1,2.0568728E0,0E0,0E0,2.0423322E0,0E0,2.7240844E0,0E0,6.2234116E-1,1.7504176E0,2.2531688E0,2.1494064E0,7.6808186E0,9.868965E0,0E0,0E0,3.7207985E-1,3.0873936E-1,6.5709376E-1,0E0,0E0,0E0,0E0,0E0,0E0,0E0,0E0,0E0,0E0,0E0,0E0,0E0,0E0,0E0,0E0,0E0,0E0,0E0,0E0,0E0],"parents":[2147483647,0,0,1,1,2,2,3,3,4,4,6,6,7,7,9,9,10,10,11,11,12,12,13,13,14,14,15,15,16,16,17,17,18,18,21,21,23,23,25,25,26,26,27,27,28,28,29,29,30,30,33,33,34,34,35,35],"right_children":[2,4,6,8,10,-1,12,14,-1,16,18,20,22,24,26,28,30,32,34,-1,-1,36,-1,38,-1,40,42,44,46,48,50,-1,-1,52,54,56,-1,-1,-1,-1,-1,-1,-1,-1,-1,-1,-1,-1,-1,-1,-1,-1,-1,-1,-1,-1,-1],"split_conditions":[4.8556194E0,3.862525E0,4.932851E0,4.25E0,5E0,-7.823722E-2,4.9467826E0,2.75E0,-8.38293E-2,3.625E0,4.7146726E0,4.3076925E0,4.3333335E0,2.5E0,3.2142856E0,4.5724463E0,4.5E0,4.690822E0,4.819993E0,-5.22076E-2,4.5351785E-2,4.3076925E0,-7.939187E-2,3.4935462E0,6.634276E-2,3.4935462E0,3.25E0,2.9E0,4.781605E0,4.3333335E0,4.268383E0,-8.252164E-2,-2.7385876E-2,4.8012457E0,4.838021E0,3.2142856E0,2.9085705E-2,-7.8217104E-2,4.9359947E-2,-7.376753E-2,-3.999053E-2,6.2024485E-2,-4.8521063E-3,-1.8032966E-2,1.07544735E-2,-6.836688E-2,-1.4936961E-2,2.4967525E-2,8.428761E-2,-5.6137282E-2,1.8537441E-2,2.3676807E-2,4.0166836E-2,-3.9048586E-2,-4.7977115E-3,-2.1537263E-2,-7.514392E-2],"split_indices":[0,0,0,1,1,0,0,1,0,1,0,1,1,1,1,0,1,0,0,0,0,1,0,0,0,0,1,1,0,1,0,0,0,0,0,1,0,0,0,0,0,0,0,0,0,0,0,0,0,0,0,0,0,0,0,0,0],"split_type":[0,0,0,0,0,0,0,0,0,0,0,0,0,0,0,0,0,0,0,0,0,0,0,0,0,0,0,0,0,0,0,0,0,0,0,0,0,0,0,0,0,0,0,0,0,0,0,0,0,0,0,0,0,0,0,0,0],"sum_hessian":[9.6913715E2,9.1988196E2,4.9255165E1,2.2205815E2,6.9782385E2,1.1284534E1,3.797063E1,1.9739442E2,2.4663727E1,5.269502E2,1.7087364E2,7.022403E0,3.0948229E1,2.0928432E1,1.7646599E2,1.657236E2,3.612266E2,5.3979294E1,1.1689435E2,1.2779446E0,5.744458E0,1.4414395E1,1.6533833E1,5.8061085E0,1.5122324E1,3.2062984E1,1.44403E2,1.3108188E2,3.4641716E1,2.423986E2,1.1882799E2,5.143032E1,2.5489721E0,1.03891464E2,1.3002879E1,1.1474814E1,2.939581E0,4.133059E0,1.6730493E0,1.707588E1,1.4987103E1,3.0265384E0,1.4137646E2,3.7109276E1,9.397261E1,2.2581106E1,1.2060609E1,2.1882788E2,2.357073E1,2.0544464E1,9.828352E1,8.467821E1,1.921326E1,2.709933E0,1.0292947E1,4.8075604E0,6.667254E0],"tree_param":{"num_deleted":"0","num_feature":"3","num_nodes":"57","size_leaf_vector":"1"}},{"base_weights":[1.5202359E-2,4.211758E-2,-5.310932E-1,-7.813839E-2,1.2389226E-1,-7.30234E-2,-4.6486858E-1,-2.3317976E-2,-8.308193E-2,-5.6420237E-2,1.6394168E-1,1.2093449E-1,-5.895471E-1,4.8902944E-1,-5.090581E-2,1.165724E-2,-6.768373E-1,3.176328E-1,8.7951615E-2,-5.1610596E-2,3.4176327E-2,-4.186307E-1,-7.5281434E-2,3.2419153E-2,8.010044E-2,-3.5669394E-2,-3.0736917E-1,-2.1464925E-1,1.9010079E-1,-7.835641E-2,-2.1240832E-2,1.9389847E-1,4.857654E-1,-3.887798E-2,2.9025558E-1,-5.796708E-1,2.0871939E-1,-5.1668677E-3,6.291101E-2,-1.6200548E-2,-7.283752E-2,1.7828413E-3,-5.1011153E-2,4.4250548E-2,-3.5080926E-3,3.9804276E-2,6.1115273E-3,5.464631E-2,-3.8957916E-2,1.9763209E-2,-3.890659E-2,-8.00774E-2,3.400745E-2,-3.0802215E-2,-7.344403E-2,5.9676684E-2,-4.5847997E-2],"categories":[],"categories_nodes":[],"categories_segments":[],"categories_sizes":[],"default_left":[0,0,0,0,0,0,0,0,0,0,0,0,0,0,0,0,0,0,0,0,0,0,0,0,0,0,0,0,0,0,0,0,0,0,0,0,0,0,0,0,0,0,0,0,0,0,0,0,0,0,0,0,0,0,0,0,0],"id":4,"left_children":[1,3,5,7,9,-1,11,13,-1,15,17,19,21,23,25,27,29,31,33,-1,-1,35,-1,-1,-1,37,39,41,43,-1,-1,45,47,49,51,53,55,-1,-1,-1,-1,-1,-1,-1,-1,-1,-1,-1,-1,-1,-1,-1,-1,-1,-1,-1,-1],"loss_changes":[1.39663105E1,8.906685E0,2.4875832E-1,1.511623E1,3.9009705E0,0E0,2.7169428E0,4.8722095E0,0E0,4.17613E0,5.1251373E0,1.1873493E0,5.230303E-1,6.462674E-1,1.2641745E0,3.6717618E0,3.180871E-1,2.9347715E0,7.62223E0,0E0,0E0,1.8311381E0,0E0,0E0,0E0,3.3206835E0,9.9388397E-1,2.7641845E0,2.903018E0,0E0,0E0,2.2943096E0,3.4570932E0,1.5250617E1,6.491622E0,3.5121346E-1,1.3591744E0,0E0,0E0,0E0,0E0,0E0,0E0,0E0,0E0,0E0,0E0,0E0,0E0,0E0,0E0,0E0,0E0,0E0,0E0,0E0,0E0],"parents":[2147483647,0,0,1,1,2,2,3,3,4,4,6,6,7,7,9,9,10,10,11,11,12,12,13,13,14,14,15,15,16,16,17,17,18,18,21,21,25,25,26,26,27,27,28,28,31,31,32,32,33,33,34,34,35,35,36,36],"right_children":[2,4,6,8,10,-1,12,14,-1,16,18,20,22,24,26,28,30,32,34,-1,-1,36,-1,-1,-1,38,40,42,44,-1,-1,46,48,50,52,54,56,-1,-1,-1,-1,-1,-1,-1,-1,-1,-1,-1,-1,-1,-1,-1,-1,-1,-1,-1,-1],"split_conditions":[4.8556194E0,4.1704617E0,4.932851E0,4.625E0,3.6E0,-7.30234E-2,4.9467826E0,2.5E0,-8.308193E-2,4.7146726E0,4.3076925E0,4.3076925E0,4.3333335E0,4.0479426E0,4.5E0,4.401761E0,4.838021E0,4.537373E0,4.760426E0,-5.1610596E-2,3.4176327E-2,4.3076925E0,-7.5281434E-2,3.2419153E-2,8.010044E-2,4.3333335E0,4.0479426E0,3.125E0,4.4969172E0,-7.835641E-2,-2.1240832E-2,4.3421173E0,4.760426E0,4.75E0,4.625E0,5.0477467E0,5.279821E0,-5.1668677E-3,6.291101E-2,-1.6200548E-2,-7.283752E-2,1.7828413E-3,-5.1011153E-2,4.4250548E-2,-3.5080926E-3,3.9804276E-2,6.1115273E-3,5.464631E-2,-3.8957916E-2,1.9763209E-2,-3.890659E-2,-8.00774E-2,3.400745E-2,-3.0802215E-2,-7.344403E-2,5.9676684E-2,-4.5847997E-2],"split_indices":[0,0,0,1,1,0,0,1,0,0,1,1,1,0,1,0,0,0,0,0,0,1,0,0,0,1,0,1,0,0,0,0,0,1,1,0,0,0,0,0,0,0,0,0,0,0,0,0,0,0,0,0,0,0,0,0,0],"split_type":[0,0,0,0,0,0,0,0,0,0,0,0,0,0,0,0,0,0,0,0,0,0,0,0,0,0,0,0,0,0,0,0,0,0,0,0,0,0,0,0,0,0,0,0,0,0,0,0,0,0,0,0,0,0,0,0,0],"sum_hessian":[9.473311E2,9.037286E2,4.360255E1,3.6581454E2,5.37914E2,8.379204E0,3.5223343E1,3.4194077E2,2.3873777E1,9.7688255E1,4.4022574E2,6.1864223E0,2.9036922E1,1.661674E1,3.2532404E2,8.8913155E1,8.775102E0,1.4459671E2,2.9562903E2,1.2482822E0,4.93814E0,1.5927395E1,1.3109528E1,1.2206409E1,4.410331E0,3.0815567E2,1.7168358E1,3.9109997E1,4.9803154E1,6.576625E0,2.198477E0,8.453665E1,6.0060055E1,1.8220673E2,1.1342231E2,1.2734471E1,3.1929233E0,3.0181418E2,6.341501E0,1.3791333E1,3.3770254E0,2.2413841E1,1.6696156E1,2.3027113E1,2.6776043E1,3.252862E1,5.200803E1,5.6516815E1,3.5432405E0,1.09015465E2,7.319127E1,4.2947164E0,1.09127594E2,5.7073092E0,7.0271626E0,2.08553E0,1.1073933E0],"tree_param":{"num_deleted":"0","num_feature":"3","num_nodes":"57","size_leaf_vector":"1"}},{"base_weights":[-5.1423017E-4,3.181379E-2,-5.1702124E-1,-1.3740149E-1,1.4348263E-1,-7.794245E-2,-3.8970262E-1,-7.2170556E-2,-6.449058E-1,-5.128856E-2,1.9028063E-1,2.692685E-2,-4.5724094E-1,-3.2835138E-1,3.8218421E-3,-4.0517682E-1,-7.978346E-2,4.658632E-2,-5.129009E-1,4.2417577E-1,5.438457E-2,-2.533575E-1,-7.254159E-2,-1.7613402E-1,-7.225612E-2,1.09345324E-1,-1.494595E-1,-3.0132282E-1,-6.791387E-2,-1.3106637E-1,1.542935E-1,-3.7087497E-1,-7.189014E-2,2.568535E-1,6.1337477E-1,-1.1769663E-1,2.6109502E-1,-3.5467985E-1,2.1713829E-2,-3.1085838E-2,3.265023E-2,3.9670174E-3,4.4775717E-2,-7.700982E-2,-3.2812373E-3,-6.365156E-2,-1.6937636E-2,4.1042184E-3,-6.081854E-2,5.289067E-2,3.1561689E-3,-5.9408177E-2,1.3750349E-2,9.8530445E-3,4.7274712E-2,6.762556E-2,-3.8242765E-2,1.1839845E-2,-7.585793E-2,-7.255553E-2,2.9048836E-2,-1.6022187E-2,-6.574831E-2],"categories":[],"categories_nodes":[],"categories_segments":[],"categories_sizes":[],"default_left":[0,0,0,0,0,0,0,0,0,0,0,0,0,0,0,0,0,0,0,0,0,0,0,0,0,0,0,0,0,0,0,0,0,0,0,0,0,0,0,0,0,0,0,0,0,0,0,0,0,0,0,0,0,0,0,0,0,0,0,0,0,0,0],"id":5,"left_children":[1,3,5,7,9,-1,11,13,15,17,19,-1,21,23,25,27,-1,29,31,33,35,37,-1,39,-1,41,43,45,-1,47,49,51,-1,53,55,57,59,61,-1,-1,-1,-1,-1,-1,-1,-1,-1,-1,-1,-1,-1,-1,-1,-1,-1,-1,-1,-1,-1,-1,-1,-1,-1],"loss_changes":[1.575735E1,1.6801617E1,1.5533152E0,1.1659107E1,4.8910084E0,0E0,1.8778257E0,6.1228256E0,1.1485405E0,4.7466803E0,1.3707978E1,0E0,1.7917733E0,4.1900373E0,3.954863E0,2.980373E-1,0E0,1.6880276E0,2.708292E-1,4.8635197E0,9.790855E0,1.1288021E0,0E0,3.705967E0,0E0,3.3962946E0,7.192925E0,5.3829217E-1,0E0,2.7708912E0,2.4992943E0,1.5499126E0,0E0,2.8892317E0,4.874548E0,2.2850307E1,3.8347445E0,9.859507E-1,0E0,0E0,0E0,0E0,0E0,0E0,0E0,0E0,0E0,0E0,0E0,0E0,0E0,0E0,0E0,0E0,0E0,0E0,0E0,0E0,0E0,0E0,0E0,0E0,0E0],"parents":[2147483647,0,0,1,1,2,2,3,3,4,4,6,6,7,7,8,8,9,9,10,10,12,12,13,13,14,14,15,15,17,17,18,18,19,19,20,20,21,21,23,23,25,25,26,26,27,27,29,29,30,30,31,31,33,33,34,34,35,35,36,36,37,37],"right_children":[2,4,6,8,10,-1,12,14,16,18,20,-1,22,24,26,28,-1,30,32,34,36,38,-1,40,-1,42,44,46,-1,48,50,52,-1,54,56,58,60,62,-1,-1,-1,-1,-1,-1,-1,-1,-1,-1,-1,-1,-1,-1,-1,-1,-1,-1,-1,-1,-1,-1,-1,-1,-1],"split_conditions":[4.838021E0,4.1704617E0,4.3076925E0,4.5E0,3.6E0,-7.794245E-2,4.3333335E0,3.2142856E0,4.625E0,3.5E0,4.4375E0,2.692685E-2,4.9467826E0,3E0,3.764706E0,4.0479426E0,-7.978346E-2,2.9E0,4.6065807E0,4.537373E0,4.7382345E0,4.932851E0,-7.254159E-2,2.8333333E0,-7.225612E-2,4.0479426E0,3.4935462E0,3.4935462E0,-6.791387E-2,4.4969172E0,4.268383E0,4.4969172E0,-7.189014E-2,4.142857E0,4.760426E0,5E0,4.625E0,4.8556194E0,2.1713829E-2,-3.1085838E-2,3.265023E-2,3.9670174E-3,4.4775717E-2,-7.700982E-2,-3.2812373E-3,-6.365156E-2,-1.6937636E-2,4.1042184E-3,-6.081854E-2,5.289067E-2,3.1561689E-3,-5.9408177E-2,1.3750349E-2,9.8530445E-3,4.7274712E-2,6.762556E-2,-3.8242765E-2,1.1839845E-2,-7.585793E-2,-7.255553E-2,2.9048836E-2,-1.6022187E-2,-6.574831E-2],"split_indices":[0,0,1,1,1,0,1,1,1,1,1,0,0,1,1,0,0,1,0,0,0,0,0,1,0,0,0,0,0,0,0,0,0,1,0,1,1,0,0,0,0,0,0,0,0,0,0,0,0,0,0,0,0,0,0,0,0,0,0,0,0,0,0],"split_type":[0,0,0,0,0,0,0,0,0,0,0,0,0,0,0,0,0,0,0,0,0,0,0,0,0,0,0,0,0,0,0,0,0,0,0,0,0,0,0,0,0,0,0,0,0,0,0,0,0,0,0,0,0,0,0,0,0,0,0,0,0,0,0],"sum_hessian":[9.417017E2,8.871158E2,5.4585903E1,3.525919E2,5.345239E2,1.6159464E1,3.842644E1,3.13446E2,3.9145874E1,1.0353209E2,4.3099182E2,3.2945576E0,3.513188E1,7.094839E1,2.4249762E2,1.6667532E1,2.2478344E1,8.616232E1,1.7369772E1,1.5760736E2,2.7338446E2,2.1063122E1,1.4068761E1,5.2228176E1,1.8720213E1,1.4379291E2,9.870472E1,1.3608621E1,3.058911E0,3.2439537E1,5.3722782E1,1.1938915E1,5.430858E0,8.489033E1,7.271703E1,1.4942368E2,1.23960785E2,1.7533417E1,3.529704E0,4.1489155E1,1.0739019E1,1.2016875E2,2.3624155E1,1.4729934E1,8.3974785E1,2.7637153E0,1.0844905E1,2.4511585E1,7.9279513E0,1.24407E1,4.128208E1,8.179203E0,3.7597122E0,4.981527E1,3.5075058E1,6.869982E1,4.0172176E0,1.0979244E2,3.9631233E1,2.9009163E0,1.21059875E2,1.16079855E1,5.925432E0],"tree_param":{"num_deleted":"0","num_feature":"3","num_nodes":"63","size_leaf_vector":"1"}},{"base_weights":[1.4405052E-2,3.7163734E-2,-4.8035622E-1,-1.1712442E-1,8.854928E-2,-6.774942E-2,-4.0997392E-1,-4.7451902E-2,-7.292246E-2,1.8101673E-1,-2.443762E-2,1.8403511E-2,-5.3909487E-1,1.8761748E-1,-1.0970459E-1,1.6088966E-1,6.6673154E-1,-2.1091214E-1,1.856316E-1,-3.5587978E-1,-6.970097E-2,-6.35842E-3,2.3988168E-1,-3.43723E-1,-5.522903E-2,1.8403812E-1,-8.64911E-2,7.800674E-2,-1.1040607E-2,-1.16954E-2,-6.9851816E-1,-6.6173494E-2,2.0761251E-1,-4.5334488E-1,9.100622E-2,1.4240463E-2,3.7356075E-2,-2.825788E-2,-7.1268156E-2,1.3350139E-2,-1.9987453E-2,2.1143109E-2,-7.329818E-3,8.246798E-3,-7.6403916E-2,-7.209986E-2,-2.0677377E-2,3.6769502E-2,1.6170932E-2,-1.8369028E-2,-6.5657675E-2,4.934276E-2,-4.1941658E-2],"categories":[],"categories_nodes":[],"categories_segments":[],"categories_sizes":[],"default_left":[0,0,0,0,0,0,0,0,0,0,0,0,0,0,0,0,0,0,0,0,0,0,0,0,0,0,0,0,0,0,0,0,0,0,0,0,0,0,0,0,0,0,0,0,0,0,0,0,0,0,0,0,0],"id":6,"left_children":[1,3,5,7,9,-1,11,13,-1,15,17,-1,19,21,23,25,27,29,31,33,-1,-1,35,37,39,41,-1,-1,-1,43,45,-1,47,49,51,-1,-1,-1,-1,-1,-1,-1,-1,-1,-1,-1,-1,-1,-1,-1,-1,-1,-1],"loss_changes":[1.0231512E1,6.8928576E0,2.767086E-1,9.233252E0,6.814031E0,0E0,2.552071E0,2.891407E0,0E0,3.3980217E0,1.1564741E1,0E0,5.1936436E-1,5.593717E-1,1.9663635E0,8.365961E0,1.3146968E0,1.5178054E1,2.7243648E0,6.650572E-1,0E0,0E0,3.965727E-1,4.5770288E-1,3.5078237E0,2.4038296E0,0E0,0E0,0E0,7.997865E0,3.520069E-1,0E0,9.4094515E-1,5.328977E-1,9.0473753E-1,0E0,0E0,0E0,0E0,0E0,0E0,0E0,0E0,0E0,0E0,0E0,0E0,0E0,0E0,0E0,0E0,0E0,0E0],"parents":[2147483647,0,0,1,1,2,2,3,3,4,4,6,6,7,7,9,9,10,10,12,12,13,13,14,14,15,15,16,16,17,17,18,18,19,19,22,22,23,23,24,24,25,25,29,29,30,30,32,32,33,33,34,34],"right_children":[2,4,6,8,10,-1,12,14,-1,16,18,-1,20,22,24,26,28,30,32,34,-1,-1,36,38,40,42,-1,-1,-1,44,46,-1,48,50,52,-1,-1,-1,-1,-1,-1,-1,-1,-1,-1,-1,-1,-1,-1,-1,-1,-1,-1],"split_conditions":[4.8556194E0,3.862525E0,4.932851E0,4.25E0,4.5E0,-6.774942E-2,4.9467826E0,3E0,-7.292246E-2,4.3333335E0,4.7146726E0,1.8403511E-2,4.3333335E0,2.5E0,3.3636363E0,4.3076925E0,4.6065807E0,5E0,4.625E0,4.3076925E0,-6.970097E-2,-6.35842E-3,3.4935462E0,3.3333333E0,3.6E0,4.690822E0,-8.64911E-2,7.800674E-2,-1.1040607E-2,4.636886E0,4.690822E0,-6.6173494E-2,4.760426E0,5.0477467E0,5.279821E0,1.4240463E-2,3.7356075E-2,-2.825788E-2,-7.1268156E-2,1.3350139E-2,-1.9987453E-2,2.1143109E-2,-7.329818E-3,8.246798E-3,-7.6403916E-2,-7.209986E-2,-2.0677377E-2,3.6769502E-2,1.6170932E-2,-1.8369028E-2,-6.5657675E-2,4.934276E-2,-4.1941658E-2],"split_indices":[0,0,0,1,1,0,0,1,0,1,0,0,1,1,1,1,0,1,1,1,0,0,0,1,1,0,0,0,0,0,0,0,0,0,0,0,0,0,0,0,0,0,0,0,0,0,0,0,0,0,0,0,0],"split_type":[0,0,0,0,0,0,0,0,0,0,0,0,0,0,0,0,0,0,0,0,0,0,0,0,0,0,0,0,0,0,0,0,0,0,0,0,0,0,0,0,0,0,0,0,0,0,0,0,0,0,0,0,0],"sum_hessian":[9.0606537E2,8.6710406E2,3.8961308E1,2.1631775E2,6.5078625E2,7.9809837E0,3.0980326E1,1.9517896E2,2.1138792E1,3.5756018E2,2.932261E2,5.4558578E0,2.5524467E1,4.0444527E1,1.5473444E2,3.446114E2,1.2948779E1,1.5533453E2,1.3789159E2,1.3321864E1,1.2202603E1,6.9282284E0,3.35163E1,2.8215487E1,1.2651894E2,3.378089E2,6.802482E0,1.1297422E1,1.6513569E0,1.1100587E2,4.432867E1,2.750603E0,1.3514098E2,1.0924743E1,2.3971214E0,2.0577051E1,1.2939248E1,2.5719162E1,2.4963243E0,5.49276E1,7.159135E1,3.0547052E2,3.233838E1,9.944919E1,1.155668E1,4.1944923E1,2.3837447E0,2.8553501E1,1.0658748E2,5.5133276E0,5.4114156E0,1.3589841E0,1.0381374E0],"tree_param":{"num_deleted":"0","num_feature":"3","num_nodes":"53","size_leaf_vector":"1"}},{"base_weights":[-8.99288E-3,-5.0480112E-2,2.6579294E-1,-1.512458E-2,-4.6386108E-1,3.2468772E-1,-6.0642835E-2,-1.6270112E-1,6.792032E-2,1.3272786E-1,-8.1593364E-2,6.687865E-1,1.9679478E-1,-2.8089553E-1,7.499569E-2,5.0992765E-2,4.2958874E-2,-6.911087E-2,2.7099985E-1,3.9377615E-1,7.808587E-2,7.854656E-2,4.6140745E-1,-3.246738E-1,1.5073223E-1,2.3775038E-1,-5.246662E-1,-5.7316995E-1,5.414968E-2,6.957712E-2,9.3186915E-2,5.702532E-1,-5.26206E-2,1.673529E-1,-7.605941E-2,1.831838E-1,7.292781E-2,8.745191E-3,-3.587875E-2,8.39741E-3,4.269111E-2,-1.236031E-3,4.121776E-2,-3.323445E-2,-7.364731E-2,1.4993586E-2,-8.103948E-2,3.0392366E-3,4.0191274E-2,2.2272024E-2,-6.0912995E-3,3.1477075E-2,7.237403E-2,3.2824125E-2,1.7669825E-3,7.814531E-2,-4.023884E-2],"categories":[],"categories_nodes":[],"categories_segments":[],"categories_sizes":[],"default_left":[0,0,0,0,0,0,0,0,0,0,0,0,0,0,0,0,0,0,0,0,0,0,0,0,0,0,0,0,0,0,0,0,0,0,0,0,0,0,0,0,0,0,0,0,0,0,0,0,0,0,0,0,0,0,0,0,0],"id":7,"left_children":[1,3,5,7,9,11,-1,13,15,17,-1,19,21,23,25,-1,27,-1,29,31,-1,33,35,37,39,41,43,45,47,-1,49,51,-1,53,-1,55,-1,-1,-1,-1,-1,-1,-1,-1,-1,-1,-1,-1,-1,-1,-1,-1,-1,-1,-1,-1,-1],"loss_changes":[1.0146567E1,1.1292193E1,6.1946115E0,8.752017E0,1.28954315E1,4.7102566E0,0E0,7.2447786E0,5.021417E0,2.8589902E0,0E0,5.985098E-1,2.517885E0,3.2979174E0,8.5358925E0,0E0,3.021834E0,0E0,1.5062871E0,2.009375E0,0E0,4.421318E0,1.7300448E0,2.230568E0,2.6866424E-1,2.9922855E0,5.1735973E-1,1.4636731E0,3.5151296E0,0E0,3.2930806E-1,1.3740158E-1,0E0,1.2687994E0,0E0,5.0794067E0,0E0,0E0,0E0,0E0,0E0,0E0,0E0,0E0,0E0,0E0,0E0,0E0,0E0,0E0,0E0,0E0,0E0,0E0,0E0,0E0,0E0],"parents":[2147483647,0,0,1,1,2,2,3,3,4,4,5,5,7,7,8,8,9,9,11,11,12,12,13,13,14,14,16,16,18,18,19,19,21,21,22,22,23,23,24,24,25,25,26,26,27,27,28,28,30,30,31,31,33,33,35,35],"right_children":[2,4,6,8,10,12,-1,14,16,18,-1,20,22,24,26,-1,28,-1,30,32,-1,34,36,38,40,42,44,46,48,-1,50,52,-1,54,-1,56,-1,-1,-1,-1,-1,-1,-1,-1,-1,-1,-1,-1,-1,-1,-1,-1,-1,-1,-1,-1,-1],"split_conditions":[9E0,8E0,2.6E1,3.8E0,4.5E0,3.3636363E0,-6.0642835E-2,5E0,3.892857E0,3.3333333E0,-8.1593364E-2,1.1E1,1.8E1,3.7222223E0,3.6E0,5.0992765E-2,3.9375E0,-6.911087E-2,3.5714285E0,2.8333333E0,7.808587E-2,1.7E1,3.625E0,2.5E0,3E0,3.2142856E0,7E0,3.9166667E0,5E0,6.957712E-2,3.7222223E0,2.75E0,-5.26206E-2,3.764706E0,-7.605941E-2,3.5E0,7.292781E-2,8.745191E-3,-3.587875E-2,8.39741E-3,4.269111E-2,-1.236031E-3,4.121776E-2,-3.323445E-2,-7.364731E-2,1.4993586E-2,-8.103948E-2,3.0392366E-3,4.0191274E-2,2.2272024E-2,-6.0912995E-3,3.1477075E-2,7.237403E-2,3.2824125E-2,1.7669825E-3,7.814531E-2,-4.023884E-2],"split_indices":[2,2,2,1,1,1,0,2,1,1,0,2,2,1,1,0,1,0,1,1,0,2,1,1,2,1,2,1,2,0,1,1,0,1,0,1,0,0,0,0,0,0,0,0,0,0,0,0,0,0,0,0,0,0,0,0,0],"split_type":[0,0,0,0,0,0,0,0,0,0,0,0,0,0,0,0,0,0,0,0,0,0,0,0,0,0,0,0,0,0,0,0,0,0,0,0,0,0,0,0,0,0,0,0,0,0,0,0,0,0,0,0,0,0,0,0,0],"sum_hessian":[8.878648E2,7.7210803E2,1.1575678E2,7.122293E2,5.987876E1,1.09022995E2,6.7337866E0,2.5612256E2,4.5610675E2,2.2453756E1,3.7425003E1,2.839536E1,8.062763E1,1.7094075E2,8.51818E1,2.3342281E1,4.3276447E2,2.6523914E0,1.9801365E1,9.528144E0,1.8867218E1,5.6621746E1,2.4005884E1,1.5542447E2,1.5516279E1,6.747255E1,1.770925E1,6.82428E0,4.259402E2,4.9835024E0,1.48178625E1,8.313535E0,1.2146094E0,5.1926888E1,4.6948614E0,1.2601351E1,1.1404532E1,1.1762228E1,1.4366225E2,1.354599E1,1.9702888E0,2.810377E1,3.936878E1,1.0628036E1,7.0812144E0,1.7766565E0,5.0476236E0,3.9972076E2,2.6219397E1,7.808715E0,7.0091476E0,4.2650566E0,4.048478E0,2.445176E1,2.7475128E1,6.0676365E0,6.5337143E0],"tree_param":{"num_deleted":"0","num_feature":"3","num_nodes":"57","size_leaf_vector":"1"}},{"base_weights":[-3.2229114E-3,-5.271277E-2,3.1738785E-1,-4.633327E-1,-1.7462956E-2,3.733856E-1,-6.931775E-2,-6.4390224E-1,7.2062425E-2,1.6156705E-2,-4.546394E-1,2.3328169E-1,5.241338E-1,-6.792639E-1,-4.043739E-1,3.7370634E-3,1.7639238E-2,4.3210894E-2,-3.8519347E-1,1.0447218E-1,-6.2619895E-1,5.673384E-1,1.6162646E-1,2.1147129E-1,5.9921455E-1,-5.4722823E-2,-8.43828E-2,-1.9289467E-2,-5.3267565E-2,-3.781621E-3,2.6949152E-1,-1.4326108E-1,-6.370857E-1,-2.2630613E-2,3.5566982E-2,-7.035379E-1,2.5505437E-2,3.189244E-2,7.752579E-2,-1.596402E-1,3.2235274E-1,5.1247403E-3,2.5245494E-1,8.535056E-2,5.116056E-1,-8.701417E-3,1.334967E-2,2.2337502E-2,4.233795E-2,6.7332196E-3,-6.301739E-2,-7.644635E-2,-2.6327271E-2,-5.0991286E-2,-8.067732E-2,1.116814E-2,-8.069866E-2,3.844075E-2,-4.0516496E-2,3.1627323E-2,6.3628303E-3,-3.143623E-2,5.6375336E-2],"categories":[],"categories_nodes":[],"categories_segments":[],"categories_sizes":[],"default_left":[0,0,0,0,0,0,0,0,0,0,0,0,0,0,0,0,0,0,0,0,0,0,0,0,0,0,0,0,0,0,0,0,0,0,0,0,0,0,0,0,0,0,0,0,0,0,0,0,0,0,0,0,0,0,0,0,0,0,0,0,0,0,0],"id":8,"left_children":[1,3,5,7,9,11,-1,13,15,17,19,21,23,25,27,-1,-1,29,31,33,35,37,39,41,43,-1,-1,-1,-1,45,47,49,51,-1,-1,53,-1,-1,-1,55,57,-1,59,-1,61,-1,-1,-1,-1,-1,-1,-1,-1,-1,-1,-1,-1,-1,-1,-1,-1,-1,-1],"loss_changes":[1.4215783E1,1.1225029E1,7.038563E0,5.974204E0,1.0527367E1,2.2889528E0,0E0,1.1454964E-1,5.263427E-2,7.243992E0,4.97147E0,1.3678305E0,1.1454306E0,3.762989E-1,1.2468934E-1,0E0,0E0,6.6413894E0,2.4764714E0,1.1495478E0,2.8566208E0,2.8839374E-1,2.7160492E0,6.6115916E-2,5.2470684E-1,0E0,0E0,0E0,0E0,5.9311748E0,6.6762114E-1,2.3785596E0,7.6782894E-1,0E0,0E0,3.1576538E-1,0E0,0E0,0E0,3.2299428E0,1.723522E0,0E0,9.233165E-2,0E0,1.6671686E0,0E0,0E0,0E0,0E0,0E0,0E0,0E0,0E0,0E0,0E0,0E0,0E0,0E0,0E0,0E0,0E0,0E0,0E0],"parents":[2147483647,0,0,1,1,2,2,3,3,4,4,5,5,7,7,8,8,9,9,10,10,11,11,12,12,13,13,14,14,17,17,18,18,19,19,20,20,21,21,22,22,23,23,24,24,29,29,30,30,31,31,32,32,35,35,39,39,40,40,42,42,44,44],"right_children":[2,4,6,8,10,12,-1,14,16,18,20,22,24,26,28,-1,-1,30,32,34,36,38,40,42,44,-1,-1,-1,-1,46,48,50,52,-1,-1,54,-1,-1,-1,56,58,-1,60,-1,62,-1,-1,-1,-1,-1,-1,-1,-1,-1,-1,-1,-1,-1,-1,-1,-1,-1,-1],"split_conditions":[9E0,3.4935462E0,4.6650233E0,7E0,8E0,3.862525E0,-6.931775E-2,5E0,8E0,4.838021E0,4.0479426E0,1E1,1.1E1,3E0,6E0,3.7370634E-3,1.7639238E-2,5E0,2E0,3.862525E0,5.187966E0,3.4935462E0,1.5E1,4.0479426E0,1.3E1,-5.4722823E-2,-8.43828E-2,-1.9289467E-2,-5.3267565E-2,4.537373E0,4.5724463E0,4.9467826E0,5.035974E0,-2.2630613E-2,3.5566982E-2,4.4969172E0,2.5505437E-2,3.189244E-2,7.752579E-2,1.3E1,2.6E1,5.1247403E-3,4.1704617E0,8.535056E-2,4.0479426E0,-8.701417E-3,1.334967E-2,2.2337502E-2,4.233795E-2,6.7332196E-3,-6.301739E-2,-7.644635E-2,-2.6327271E-2,-5.0991286E-2,-8.067732E-2,1.116814E-2,-8.069866E-2,3.844075E-2,-4.0516496E-2,3.1627323E-2,6.3628303E-3,-3.143623E-2,5.6375336E-2],"split_indices":[2,0,0,2,2,0,0,2,2,0,0,2,2,2,2,0,0,2,2,0,0,0,2,0,2,0,0,0,0,0,0,0,0,0,0,0,0,0,0,2,2,0,0,0,0,0,0,0,0,0,0,0,0,0,0,0,0,0,0,0,0,0,0],"split_type":[0,0,0,0,0,0,0,0,0,0,0,0,0,0,0,0,0,0,0,0,0,0,0,0,0,0,0,0,0,0,0,0,0,0,0,0,0,0,0,0,0,0,0,0,0,0,0,0,0,0,0,0,0,0,0,0,0,0,0,0,0,0,0],"sum_hessian":[8.9388055E2,7.750747E2,1.18805855E2,6.0316166E1,7.1475854E2,1.1316561E2,5.640249E0,4.4952606E1,1.5363562E1,6.6461176E2,5.0146805E1,5.9973915E1,5.3191696E1,3.757025E1,7.3823543E0,1.2548974E1,2.8145878E0,6.234768E2,4.1134945E1,1.1866147E1,3.828066E1,9.370593E0,5.060332E1,1.1038816E1,4.215288E1,2.324515E1,1.4325102E1,3.7328908E0,3.6494634E0,5.1707684E2,1.0639993E2,2.1782482E1,1.9352465E1,5.1645427E0,6.701605E0,3.537758E1,2.903078E0,5.424042E0,3.9465508E0,1.6876534E1,3.3726788E1,2.7068675E0,8.331949E0,8.561195E0,3.3591686E1,3.2213248E2,1.949444E2,8.375279E1,2.2647137E1,1.5807389E1,5.9750924E0,1.3654586E1,5.697879E0,1.43682575E1,2.1009323E1,1.2475266E1,4.401267E0,3.1510654E1,2.2161326E0,5.722843E0,2.6091056E0,1.6962624E0,3.1895422E1],"tree_param":{"num_deleted":"0","num_feature":"3","num_nodes":"63","size_leaf_vector":"1"}},{"base_weights":[-1.4185463E-2,-4.814252E-2,3.0066657E-1,1.6850688E-2,-1.4557716E-1,3.7091124E-1,-4.3539914E-1,-7.829676E-2,1.4325686E-1,-7.76596E-2,-7.481443E-2,1.2977873E-1,7.016895E-1,5.016498E-2,-7.693572E-2,-4.5316213E-1,2.5372975E-2,1.8613389E-1,-8.137867E-2,-1.03097096E-1,3.1326282E-1,5.4942656E-1,-3.3976495E-1,5.258573E-1,7.767184E-2,-5.187101E-1,-1.2686888E-3,2.4663147E-1,-2.3578392E-1,3.4032792E-1,1.3659155E-1,-3.2989833E-1,4.588768E-1,-8.768276E-2,-5.916624E-2,6.553072E-2,2.0572409E-2,6.5053064E-1,-4.9897753E-2,-6.2911975E-1,-1.0408875E-1,-3.6391113E-2,7.298595E-2,-8.145975E-2,-4.3655273E-2,3.0118603E-2,6.4728E-3,-7.290221E-2,-4.752185E-4,3.9801344E-2,2.5096072E-2,1.1387573E-2,3.6818784E-2,-6.854494E-2,2.5260374E-2,7.291896E-2,2.1740798E-2,-1.3316839E-2,9.5465705E-3,-5.0404992E-2,1.3323038E-2,4.420916E-2,7.5639084E-2,1.3591475E-2,-8.153464E-2,-4.3681372E-2,6.3042246E-2],"categories":[],"categories_nodes":[],"categories_segments":[],"categories_sizes":[],"default_left":[0,0,0,0,0,0,0,0,0,0,0,0,0,0,0,0,0,0,0,0,0,0,0,0,0,0,0,0,0,0,0,0,0,0,0,0,0,0,0,0,0,0,0,0,0,0,0,0,0,0,0,0,0,0,0,0,0,0,0,0,0,0,0,0,0,0,0],"id":9,"left_children":[1,3,5,7,9,11,13,15,17,19,-1,21,23,-1,-1,25,27,29,31,33,35,37,39,41,-1,43,-1,45,47,49,51,53,55,57,-1,-1,59,61,-1,63,65,-1,-1,-1,-1,-1,-1,-1,-1,-1,-1,-1,-1,-1,-1,-1,-1,-1,-1,-1,-1,-1,-1,-1,-1,-1,-1],"loss_changes":[9.063453E0,4.8458805E0,4.4288836E0,5.540099E0,1.2470821E1,5.9615154E0,2.779979E0,1.0229313E1,1.9200382E0,2.7793393E0,0E0,9.076468E0,1.0651588E-2,0E0,0E0,1.6395073E0,1.2014151E1,1.2244973E0,4.500859E0,1.9070904E0,1.7009585E0,2.8903775E0,1.4286528E0,2.552223E0,0E0,8.50193E-1,0E0,1.0969248E0,1.0868923E1,1.0522699E-1,6.2931323E-1,4.8890257E0,5.349796E-1,2.1232076E0,0E0,0E0,6.735921E-1,1.6232109E-1,0E0,1.4837644E0,3.5192487E0,0E0,0E0,0E0,0E0,0E0,0E0,0E0,0E0,0E0,0E0,0E0,0E0,0E0,0E0,0E0,0E0,0E0,0E0,0E0,0E0,0E0,0E0,0E0,0E0,0E0,0E0],"parents":[2147483647,0,0,1,1,2,2,3,3,4,4,5,5,6,6,7,7,8,8,9,9,11,11,12,12,15,15,16,16,17,17,18,18,19,19,20,20,21,21,22,22,23,23,25,25,27,27,28,28,29,29,30,30,31,31,32,32,33,33,36,36,37,37,39,39,40,40],"right_children":[2,4,6,8,10,12,14,16,18,20,-1,22,24,-1,-1,26,28,30,32,34,36,38,40,42,-1,44,-1,46,48,50,52,54,56,58,-1,-1,60,62,-1,64,66,-1,-1,-1,-1,-1,-1,-1,-1,-1,-1,-1,-1,-1,-1,-1,-1,-1,-1,-1,-1,-1,-1,-1,-1,-1,-1],"split_conditions":[1.1E1,4.5E0,4.3076925E0,3.75E0,8E0,3.8E0,1.2E1,3E0,6E0,6E0,-7.481443E-2,3.5E0,1.6E1,5.016498E-2,-7.693572E-2,3.3333333E0,3.3333333E0,3.892857E0,4.142857E0,4E0,4.625E0,2.6E1,2E1,3.9375E0,7.767184E-2,2.75E0,-1.2686888E-3,3.125E0,5E0,3.8333333E0,4.3076925E0,9E0,4.3076925E0,2E0,-5.916624E-2,6.553072E-2,4.75E0,1.7E1,-4.9897753E-2,1.3E1,3.764706E0,-3.6391113E-2,7.298595E-2,-8.145975E-2,-4.3655273E-2,3.0118603E-2,6.4728E-3,-7.290221E-2,-4.752185E-4,3.9801344E-2,2.5096072E-2,1.1387573E-2,3.6818784E-2,-6.854494E-2,2.5260374E-2,7.291896E-2,2.1740798E-2,-1.3316839E-2,9.5465705E-3,-5.0404992E-2,1.3323038E-2,4.420916E-2,7.5639084E-2,1.3591475E-2,-8.153464E-2,-4.3681372E-2,6.3042246E-2],"split_indices":[2,1,1,1,2,1,2,2,2,2,0,1,2,0,0,1,1,1,1,2,1,2,2,1,0,1,0,1,2,1,1,2,1,2,0,0,1,2,0,2,1,0,0,0,0,0,0,0,0,0,0,0,0,0,0,0,0,0,0,0,0,0,0,0,0,0,0],"split_type":[0,0,0,0,0,0,0,0,0,0,0,0,0,0,0,0,0,0,0,0,0,0,0,0,0,0,0,0,0,0,0,0,0,0,0,0,0,0,0,0,0,0,0,0,0,0,0,0,0,0,0,0,0,0,0,0,0,0,0,0,0,0,0,0,0,0,0],"sum_hessian":[8.4537537E2,7.638415E2,8.153385E1,4.5869727E2,3.0514426E2,7.48836E1,6.650249E0,2.619243E2,1.9677296E2,2.7524884E2,2.9895424E1,4.4116013E1,3.076759E1,1.6154219E0,5.0348268E0,5.601288E1,2.059114E2,1.6537804E2,3.139493E1,2.591238E2,1.6125029E1,2.3205927E1,2.0910086E1,1.1597435E1,1.9170153E1,4.860262E1,7.4102607E0,1.1150081E2,9.441059E1,3.878752E1,1.2659052E2,2.1770006E1,9.624924E0,2.5234184E2,6.781967E0,6.864324E0,9.260705E0,2.1510992E1,1.6949339E0,8.63676E0,1.2273327E1,2.0168695E0,9.580566E0,8.624964E0,3.9977654E1,8.5271385E1,2.622943E1,2.9428051E1,6.4982544E1,2.147315E1,1.7314371E1,1.1664158E2,9.948944E0,1.3408757E1,8.361249E0,3.5882459E0,6.036678E0,2.0235829E2,4.998356E1,1.0229412E0,8.237764E0,8.988598E0,1.2522394E1,1.7436919E0,6.8930674E0,8.725898E0,3.547429E0],"tree_param":{"num_deleted":"0","num_feature":"3","num_nodes":"67","size_leaf_vector":"1"}},{"base_weights":[-9.828838E-3,1.6236044E-2,-4.4428545E-1,-1.6339157E-2,3.4211475E-1,-2.878239E-1,-5.531059E-1,-5.0141107E-2,4.1369015E-1,4.9218026E-1,-7.307278E-2,-9.774633E-2,-6.138424E-2,-7.2053075E-2,-3.2694873E-1,-3.3795017E-1,-1.1716867E-2,2.506451E-1,7.053396E-2,6.868791E-2,2.7347437E-1,-4.1392586E-1,5.1415563E-2,1.8630555E-2,-4.4822365E-1,-5.8152413E-1,-1.4941964E-1,-1.1939411E-1,2.8557522E-2,3.31157E-1,-5.941707E-2,3.1769764E-1,1.6857417E-1,-2.5609454E-2,-5.5198014E-2,-6.113363E-2,-1.550956E-1,-4.864223E-2,-7.009839E-2,2.372421E-2,-2.2948084E-2,2.7871735E-3,-2.7510239E-2,-7.847126E-3,7.745396E-3,1.1825859E-2,4.223469E-2,3.5235163E-2,9.222526E-3,-9.188763E-3,4.8377823E-2,-4.86882E-2,1.9508926E-2],"categories":[],"categories_nodes":[],"categories_segments":[],"categories_sizes":[],"default_left":[0,0,0,0,0,0,0,0,0,0,0,0,0,0,0,0,0,0,0,0,0,0,0,0,0,0,0,0,0,0,0,0,0,0,0,0,0,0,0,0,0,0,0,0,0,0,0,0,0,0,0,0,0],"id":10,"left_children":[1,3,5,7,9,11,13,15,17,19,-1,21,-1,-1,23,25,27,29,-1,-1,31,33,-1,-1,35,37,39,41,43,45,-1,47,49,-1,-1,-1,51,-1,-1,-1,-1,-1,-1,-1,-1,-1,-1,-1,-1,-1,-1,-1,-1],"loss_changes":[9.704924E0,8.592261E0,6.6666317E-1,1.0723794E1,1.2201558E1,1.3022066E0,8.065672E-1,7.555358E0,2.379984E0,2.5853071E0,0E0,3.1295004E0,0E0,0E0,9.262196E-1,3.608571E0,2.6230838E0,2.6480548E0,0E0,0E0,9.643912E-2,8.728874E-2,0E0,0E0,4.428258E-1,5.399227E-2,1.5003761E0,3.782753E0,2.3110874E0,6.013105E-1,0E0,1.3638759E-1,1.0065675E0,0E0,0E0,0E0,7.1775544E-1,0E0,0E0,0E0,0E0,0E0,0E0,0E0,0E0,0E0,0E0,0E0,0E0,0E0,0E0,0E0,0E0],"parents":[2147483647,0,0,1,1,2,2,3,3,4,4,5,5,6,6,7,7,8,8,9,9,11,11,14,14,15,15,16,16,17,17,20,20,21,21,24,24,25,25,26,26,27,27,28,28,29,29,31,31,32,32,36,36],"right_children":[2,4,6,8,10,12,14,16,18,20,-1,22,-1,-1,24,26,28,30,-1,-1,32,34,-1,-1,36,38,40,42,44,46,-1,48,50,-1,-1,-1,52,-1,-1,-1,-1,-1,-1,-1,-1,-1,-1,-1,-1,-1,-1,-1,-1],"split_conditions":[4.838021E0,4.781605E0,2E0,1.6E1,7E0,4.9467826E0,5.035974E0,3.4935462E0,4.0479426E0,4.8012457E0,-7.307278E-2,4.932851E0,-6.138424E-2,-7.2053075E-2,5.0477467E0,5E0,2E0,2.6E1,7.053396E-2,6.868791E-2,4.819993E0,4.8556194E0,5.1415563E-2,1.8630555E-2,8E0,3E0,6E0,4.3421173E0,4.0479426E0,1.8E1,-5.941707E-2,2E0,4E0,-2.5609454E-2,-5.5198014E-2,-6.113363E-2,5.187966E0,-4.864223E-2,-7.009839E-2,2.372421E-2,-2.2948084E-2,2.7871735E-3,-2.7510239E-2,-7.847126E-3,7.745396E-3,1.1825859E-2,4.223469E-2,3.5235163E-2,9.222526E-3,-9.188763E-3,4.8377823E-2,-4.86882E-2,1.9508926E-2],"split_indices":[0,0,2,2,2,0,0,0,0,0,0,0,0,0,0,2,2,2,0,0,0,0,0,0,2,2,2,0,0,2,0,2,2,0,0,0,0,0,0,0,0,0,0,0,0,0,0,0,0,0,0,0,0],"split_type":[0,0,0,0,0,0,0,0,0,0,0,0,0,0,0,0,0,0,0,0,0,0,0,0,0,0,0,0,0,0,0,0,0,0,0,0,0,0,0,0,0,0,0,0,0,0,0,0,0,0,0,0,0],"sum_hessian":[8.553809E2,8.0787573E2,4.7505238E1,7.3532196E2,7.255375E1,2.0982145E1,2.6523092E1,6.82554E2,5.276796E1,6.412535E1,8.428395E0,1.4075542E1,6.9066024E0,1.3984415E1,1.2538678E1,7.947409E1,6.030799E2,3.5039E1,1.772896E1,3.2792126E1,3.1333227E1,9.493593E0,4.5819497E0,2.2939787E0,1.02446995E1,3.376567E1,4.5708416E1,1.6363155E2,4.3944836E2,3.25454E1,2.4936008E0,2.061422E1,1.0719007E1,5.7616177E0,3.731975E0,5.884614E0,4.360085E0,2.162326E1,1.2142411E1,7.5040016E0,3.8204414E1,8.4517525E1,7.911402E1,1.3761652E2,3.0183185E2,1.0448479E1,2.2096922E1,1.7380236E1,3.233983E0,6.2570863E0,4.4619207E0,2.0384123E0,2.3216727E0],"tree_param":{"num_deleted":"0","num_feature":"3","num_nodes":"53","size_leaf_vector":"1"}},{"base_weights":[1.67222E-2,-1.25852125E-2,4.136959E-1,-1.8945146E-1,3.4534603E-2,5.072935E-1,-1.7111005E-1,-2.6490253E-1,-1.2330096E-1,6.6656165E-2,-2.933301E-1,4.2048612E-1,6.742392E-2,-5.530212E-2,6.7576736E-2,-5.4626656E-1,-7.943315E-2,-3.5376396E-2,-5.3701073E-2,3.4340143E-2,3.6689517E-1,-1.8740553E-1,-4.2131427E-1,5.0859505E-1,1.207889E-1,5.5218883E-2,-5.140386E-2,-4.5584917E-1,-6.574725E-2,-5.799091E-2,-4.8880216E-2,-5.6723034E-4,-1.9327623E-1,-8.2864694E-2,1.4594012E-1,5.215125E-1,-6.988491E-2,-2.9372063E-1,2.5153917E-1,-6.542362E-2,-1.01663366E-1,7.528626E-2,4.2468432E-1,6.3520044E-2,-7.2799765E-2,-6.0917E-2,-3.3745836E-2,-1.1955933E-2,5.9320587E-3,-5.4981816E-3,1.498801E-2,-2.7302384E-2,1.0104761E-2,-4.087598E-2,-2.4624553E-3,2.0101925E-2,-3.3362288E-2,5.7770636E-2,4.144253E-2,-1.4022256E-2,-6.1020166E-2,4.752344E-2,-4.2799316E-2,-5.444575E-2,1.6171422E-2,1.7766757E-2,5.850483E-2],"categories":[],"categories_nodes":[],"categories_segments":[],"categories_sizes":[],"default_left":[0,0,0,0,0,0,0,0,0,0,0,0,0,0,0,0,0,0,0,0,0,0,0,0,0,0,0,0,0,0,0,0,0,0,0,0,0,0,0,0,0,0,0,0,0,0,0,0,0,0,0,0,0,0,0,0,0,0,0,0,0,0,0,0,0,0,0],"id":11,"left_children":[1,3,5,7,9,11,13,15,17,19,21,23,-1,-1,25,27,29,31,-1,33,35,37,39,41,43,-1,-1,45,-1,47,-1,49,51,53,55,57,-1,59,61,-1,63,-1,65,-1,-1,-1,-1,-1,-1,-1,-1,-1,-1,-1,-1,-1,-1,-1,-1,-1,-1,-1,-1,-1,-1,-1,-1],"loss_changes":[9.771319E0,6.529365E0,3.2473507E0,7.899103E-1,6.5372806E0,4.4148922E-1,8.317314E-1,3.9289088E0,3.243379E0,5.4641895E0,6.721859E-1,8.778324E-1,0E0,0E0,2.046515E0,2.6626587E-3,3.8463596E-1,4.1232246E-1,0E0,6.692355E0,9.386156E0,1.572701E0,1.7419615E0,2.3731375E-1,4.563627E0,0E0,0E0,1.5469122E-1,0E0,3.381905E-1,0E0,5.1978576E-1,3.4565467E-1,4.730101E0,6.9869304E0,5.174923E-2,0E0,1.1928806E0,1.2372057E0,0E0,1.4201882E0,0E0,7.882285E-1,0E0,0E0,0E0,0E0,0E0,0E0,0E0,0E0,0E0,0E0,0E0,0E0,0E0,0E0,0E0,0E0,0E0,0E0,0E0,0E0,0E0,0E0,0E0,0E0],"parents":[2147483647,0,0,1,1,2,2,3,3,4,4,5,5,6,6,7,7,8,8,9,9,10,10,11,11,14,14,15,15,16,16,17,17,19,19,20,20,21,21,22,22,23,23,24,24,27,27,29,29,31,31,32,32,33,33,34,34,35,35,37,37,38,38,40,40,42,42],"right_children":[2,4,6,8,10,12,14,16,18,20,22,24,-1,-1,26,28,30,32,-1,34,36,38,40,42,44,-1,-1,46,-1,48,-1,50,52,54,56,58,-1,60,62,-1,64,-1,66,-1,-1,-1,-1,-1,-1,-1,-1,-1,-1,-1,-1,-1,-1,-1,-1,-1,-1,-1,-1,-1,-1,-1,-1],"split_conditions":[1.5E1,3.862525E0,2.6E1,3.4935462E0,4.819993E0,3.862525E0,2.9E1,5E0,6E0,4.781605E0,4.9467826E0,2.2E1,6.742392E-2,-5.530212E-2,3.1E1,3E0,1.1E1,4E0,-5.3701073E-2,3E0,4E0,4.932851E0,4E0,1.6E1,3.4935462E0,5.5218883E-2,-5.140386E-2,2E0,-6.574725E-2,9E0,-4.8880216E-2,3E0,5E0,4.1704617E0,4.636886E0,4.8012457E0,-6.988491E-2,4.8556194E0,2E0,-6.542362E-2,5.035974E0,7.528626E-2,1.8E1,6.3520044E-2,-7.2799765E-2,-6.0917E-2,-3.3745836E-2,-1.1955933E-2,5.9320587E-3,-5.4981816E-3,1.498801E-2,-2.7302384E-2,1.0104761E-2,-4.087598E-2,-2.4624553E-3,2.0101925E-2,-3.3362288E-2,5.7770636E-2,4.144253E-2,-1.4022256E-2,-6.1020166E-2,4.752344E-2,-4.2799316E-2,-5.444575E-2,1.6171422E-2,1.7766757E-2,5.850483E-2],"split_indices":[2,0,2,0,0,0,2,2,2,0,0,2,0,0,2,2,2,2,0,2,2,0,2,2,0,0,0,2,0,2,0,2,2,0,0,0,0,0,2,0,0,0,2,0,0,0,0,0,0,0,0,0,0,0,0,0,0,0,0,0,0,0,0,0,0,0,0],"split_type":[0,0,0,0,0,0,0,0,0,0,0,0,0,0,0,0,0,0,0,0,0,0,0,0,0,0,0,0,0,0,0,0,0,0,0,0,0,0,0,0,0,0,0,0,0,0,0,0,0,0,0,0,0,0,0,0,0,0,0,0,0,0,0,0,0,0,0],"sum_hessian":[8.384262E2,7.81685E2,5.6741226E1,1.6380716E2,6.178778E2,4.9027042E1,7.7141833E0,7.512044E1,8.868673E1,5.634702E2,5.4407604E1,3.4570164E1,1.445688E1,2.4604323E0,5.253751E0,2.9071924E1,4.6048515E1,7.40373E1,1.4649428E1,5.0972113E2,5.3749107E1,3.1117697E1,2.328991E1,2.6177216E1,8.392948E0,2.8934624E0,2.3602886E0,1.8847155E1,1.022477E1,4.4841434E1,1.2070801E0,6.1486202E1,1.2551098E1,2.4874303E2,2.609781E2,4.7385162E1,6.363943E0,2.5316687E1,5.801009E0,1.2867184E1,1.0422727E1,4.654777E0,2.1522438E1,5.382496E0,3.010453E0,6.405872E0,1.2441282E1,2.939496E1,1.5446474E1,4.5620487E1,1.5865715E1,9.932293E0,2.6188052E0,3.6800346E1,2.1194269E2,2.3461298E2,2.6365112E1,2.8195103E1,1.919006E1,1.8019854E1,7.2968326E0,4.5905056E0,1.2105036E0,3.4892826E0,6.933444E0,9.302001E0,1.2220437E1],"tree_param":{"num_deleted":"0","num_feature":"3","num_nodes":"67","size_leaf_vector":"1"}},{"base_weights":[-1.6323044E-3,-2.4861744E-2,3.2958695E-1,-1.423783E-1,5.267463E-3,1.6125992E-1,6.1691743E-1,-4.2924023E-1,9.458232E-2,8.819268E-2,-7.691271E-2,5.6779015E-1,-2.64555E-1,7.252952E-2,-5.232289E-2,-6.1277002E-2,-2.532989E-1,2.7398221E-2,2.7724355E-1,6.158881E-2,5.468246E-1,-5.570317E-3,-7.220761E-2,6.7966115E-1,-4.342207E-2,-7.6161526E-2,3.0183406E-3,1.3893441E-2,-7.041287E-2,2.015945E-1,-1.8413416E-1,3.626218E-1,-5.2946128E-2,-5.1202226E-2,1.1699985E-1,3.7935063E-2,7.071092E-2,-2.3749864E-2,2.3502038E-1,2.6272357E-2,7.283142E-2,-3.4611306E-1,5.9304237E-2,-1.8296767E-2,9.706924E-3,5.1356543E-2,9.270402E-3,1.28604695E-2,-3.2956418E-2,2.5284132E-3,4.9110074E-2,-2.289301E-2,3.9549647E-3,2.8627072E-2,5.837086E-3,-9.953321E-3,3.586271E-3,5.2456062E-2,9.718618E-3,-1.0080146E-2,-4.9329534E-2],"categories":[],"categories_nodes":[],"categories_segments":[],"categories_sizes":[],"default_left":[0,0,0,0,0,0,0,0,0,0,0,0,0,0,0,0,0,0,0,0,0,0,0,0,0,0,0,0,0,0,0,0,0,0,0,0,0,0,0,0,0,0,0,0,0,0,0,0,0,0,0,0,0,0,0,0,0,0,0,0,0],"id":12,"left_children":[1,3,5,7,9,11,13,15,17,19,21,23,25,-1,-1,-1,27,29,31,33,35,37,-1,39,-1,-1,41,43,-1,45,47,49,-1,51,53,-1,-1,55,57,-1,-1,59,-1,-1,-1,-1,-1,-1,-1,-1,-1,-1,-1,-1,-1,-1,-1,-1,-1,-1,-1],"loss_changes":[6.3680944E0,2.7389646E0,2.5240035E0,1.07704735E1,4.208166E0,6.3056526E0,2.8118143E0,2.1563625E0,1.0632935E0,3.7161577E0,1.4272743E1,2.3699183E0,2.4028912E0,0E0,0E0,0E0,4.617764E0,2.4288473E0,1.8006183E0,1.8284891E0,1.8065834E-1,1.2315766E0,0E0,1.5431595E-1,0E0,0E0,2.8274655E0,4.2710137E-1,0E0,1.1777976E0,1.3993336E0,9.286802E-1,0E0,1.5697045E0,1.9269028E0,0E0,0E0,1.1850152E0,7.385721E-1,0E0,0E0,2.6181912E-1,0E0,0E0,0E0,0E0,0E0,0E0,0E0,0E0,0E0,0E0,0E0,0E0,0E0,0E0,0E0,0E0,0E0,0E0,0E0],"parents":[2147483647,0,0,1,1,2,2,3,3,4,4,5,5,6,6,7,7,8,8,9,9,10,10,11,11,12,12,16,16,17,17,18,18,19,19,20,20,21,21,23,23,26,26,27,27,29,29,30,30,31,31,33,33,34,34,37,37,38,38,41,41],"right_children":[2,4,6,8,10,12,14,16,18,20,22,24,26,-1,-1,-1,28,30,32,34,36,38,-1,40,-1,-1,42,44,-1,46,48,50,-1,52,54,-1,-1,56,58,-1,-1,60,-1,-1,-1,-1,-1,-1,-1,-1,-1,-1,-1,-1,-1,-1,-1,-1,-1,-1,-1],"split_conditions":[1.6E1,3.3636363E0,3.8E0,4E0,4.5E0,3.5E0,4.3076925E0,2.8333333E0,3.2142856E0,4.3333335E0,8E0,2.6E1,2E1,7.252952E-2,-5.232289E-2,-6.1277002E-2,3.125E0,2.9E0,8E0,3.75E0,4E0,6E0,-7.220761E-2,1.8E1,-4.342207E-2,-7.6161526E-2,3.764706E0,3E0,-7.041287E-2,5E0,5E0,5E0,-5.2946128E-2,5E0,3.892857E0,3.7935063E-2,7.071092E-2,5E0,4.625E0,2.6272357E-2,7.283142E-2,3.5714285E0,5.9304237E-2,-1.8296767E-2,9.706924E-3,5.1356543E-2,9.270402E-3,1.28604695E-2,-3.2956418E-2,2.5284132E-3,4.9110074E-2,-2.289301E-2,3.9549647E-3,2.8627072E-2,5.837086E-3,-9.953321E-3,3.586271E-3,5.2456062E-2,9.718618E-3,-1.0080146E-2,-4.9329534E-2],"split_indices":[2,1,1,2,1,1,1,1,1,1,2,2,2,0,0,0,1,1,2,1,2,2,0,2,0,0,1,2,0,2,2,2,0,2,1,0,0,1,1,0,0,1,0,0,0,0,0,0,0,0,0,0,0,0,0,0,0,0,0,0,0],"split_type":[0,0,0,0,0,0,0,0,0,0,0,0,0,0,0,0,0,0,0,0,0,0,0,0,0,0,0,0,0,0,0,0,0,0,0,0,0,0,0,0,0,0,0,0,0,0,0,0,0,0,0,0,0,0,0,0,0,0,0,0,0],"sum_hessian":[8.2560114E2,7.7235815E2,5.3242954E1,1.5685036E2,6.155078E2,3.4558662E1,1.868429E1,7.058703E1,8.626332E1,3.0632874E2,3.0917908E2,1.7509106E1,1.7049557E1,1.739468E1,1.2896111E0,3.3333267E1,3.7253765E1,6.390764E1,2.2355684E1,2.9060583E2,1.5722893E1,2.7930237E2,2.987672E1,1.6039999E1,1.4691069E0,5.32015E0,1.1729406E1,2.399932E1,1.3254448E1,3.507251E1,2.8835127E1,2.0713902E1,1.6417823E0,9.5759705E1,1.9484613E2,9.335448E0,6.3874445E0,2.6051834E2,1.8784035E1,2.344917E0,1.3695082E1,7.6287084E0,4.1006985E0,6.771859E0,1.7227459E1,8.112856E0,2.6959656E1,9.189447E0,1.964568E1,6.0432854E0,1.4670617E1,3.185415E1,6.3905556E1,4.9126804E1,1.4571933E2,1.1440705E2,1.4611128E2,5.1532235E0,1.3630812E1,3.4925244E0,4.1361837E0],"tree_param":{"num_deleted":"0","num_feature":"3","num_nodes":"61","size_leaf_vector":"1"}},{"base_weights":[-6.4972346E-3,-2.9632628E-2,3.718058E-1,-3.1898716E-1,1.1079514E-3,4.297625E-1,-4.8501827E-2,-6.0447987E-2,-1.3165736E-1,2.2826122E-2,-3.8220358E-1,2.7291936E-1,6.611687E-2,-9.175211E-2,-3.8067695E-1,-4.2439617E-2,2.745134E-1,-5.8450647E-2,-3.1970665E-1,3.169396E-1,-9.1189064E-2,1.0240077E-3,-1.1642347E-1,-6.2813364E-2,-1.0548885E-2,-2.0594645E-1,2.264476E-3,3.4887186E-1,-7.112976E-2,1.1644078E-1,-4.2818367E-1,1.12864494E-1,4.0841952E-1,-4.2541754E-2,2.1087928E-2,-3.074809E-2,-8.152751E-3,-2.6053411E-3,-5.9531845E-2,2.8867237E-3,-6.618925E-2,4.1758616E-2,5.7856683E-3,3.499156E-2,-4.441617E-2,-6.307916E-2,-1.2295615E-2,-2.5386592E-2,4.1645195E-2,6.799748E-2,-6.295799E-3],"categories":[],"categories_nodes":[],"categories_segments":[],"categories_sizes":[],"default_left":[0,0,0,0,0,0,0,0,0,0,0,0,0,0,0,0,0,0,0,0,0,0,0,0,0,0,0,0,0,0,0,0,0,0,0,0,0,0,0,0,0,0,0,0,0,0,0,0,0,0,0],"id":13,"left_children":[1,3,5,7,9,11,-1,-1,13,15,17,19,-1,21,23,25,27,-1,29,31,33,-1,35,-1,-1,37,39,41,-1,43,45,47,49,-1,-1,-1,-1,-1,-1,-1,-1,-1,-1,-1,-1,-1,-1,-1,-1,-1,-1],"loss_changes":[7.2143974E0,6.907539E0,2.5675535E0,3.9089546E0,5.8606834E0,1.4537811E0,0E0,0E0,4.25255E-1,1.0955076E1,2.9040766E-1,4.8634577E-1,0E0,1.04940355E-1,3.476665E-1,3.8736377E0,1.0313873E1,0E0,1.5187705E0,4.334154E-1,4.7889817E-1,0E0,1.968185E-1,0E0,0E0,7.9542975E0,7.388717E0,2.5425568E0,0E0,1.0677172E0,1.4732556E0,1.144692E0,2.2641163E0,0E0,0E0,0E0,0E0,0E0,0E0,0E0,0E0,0E0,0E0,0E0,0E0,0E0,0E0,0E0,0E0,0E0,0E0],"parents":[2147483647,0,0,1,1,2,2,3,3,4,4,5,5,8,8,9,9,10,10,11,11,13,13,14,14,15,15,16,16,18,18,19,19,20,20,22,22,25,25,26,26,27,27,29,29,30,30,31,31,32,32],"right_children":[2,4,6,8,10,12,-1,-1,14,16,18,20,-1,22,24,26,28,-1,30,32,34,-1,36,-1,-1,38,40,42,-1,44,46,48,50,-1,-1,-1,-1,-1,-1,-1,-1,-1,-1,-1,-1,-1,-1,-1,-1,-1,-1],"split_conditions":[1.6E1,3.4935462E0,4.6650233E0,5E0,4.8556194E0,4.0479426E0,-4.8501827E-2,-6.0447987E-2,1.1E1,4.7382345E0,4.932851E0,2.6E1,6.611687E-2,6E0,1.5E1,2E0,7E0,-5.8450647E-2,4.9467826E0,1.8E1,2.9E1,1.0240077E-3,7E0,-6.2813364E-2,-1.0548885E-2,4.3421173E0,4.690822E0,4.819993E0,-7.112976E-2,2E0,4E0,3.4935462E0,3.4935462E0,-4.2541754E-2,2.1087928E-2,-3.074809E-2,-8.152751E-3,-2.6053411E-3,-5.9531845E-2,2.8867237E-3,-6.618925E-2,4.1758616E-2,5.7856683E-3,3.499156E-2,-4.441617E-2,-6.307916E-2,-1.2295615E-2,-2.5386592E-2,4.1645195E-2,6.799748E-2,-6.295799E-3],"split_indices":[2,0,0,2,0,0,0,0,2,0,0,2,0,2,2,2,2,0,0,2,2,0,2,0,0,0,0,0,0,2,2,0,0,0,0,0,0,0,0,0,0,0,0,0,0,0,0,0,0,0,0],"split_type":[0,0,0,0,0,0,0,0,0,0,0,0,0,0,0,0,0,0,0,0,0,0,0,0,0,0,0,0,0,0,0,0,0,0,0,0,0,0,0,0,0,0,0,0,0,0,0,0,0,0,0],"sum_hessian":[8.220375E2,7.7553094E2,4.6506485E1,7.357821E1,7.0195276E2,4.402687E1,2.4796128E0,2.8269047E1,4.5309162E1,6.6520325E2,3.674951E1,2.7540075E1,1.6486795E1,4.0230675E1,5.0784903E0,5.288873E2,1.363159E2,6.7021294E0,3.0047384E1,2.4685213E1,2.8548634E0,7.950012E0,3.2280663E1,1.9986705E0,3.0798197E0,1.1278077E2,4.1610657E2,1.2735573E2,8.960175E0,5.9701443E0,2.407724E1,8.331937E0,1.6353275E1,1.1614306E0,1.6934328E0,3.7790096E0,2.8501652E1,7.787076E1,3.4910015E1,4.0100104E2,1.5105532E1,1.0267682E2,2.467891E1,4.480124E0,1.4900204E0,1.3830211E1,1.0247028E1,3.8477163E0,4.4842205E0,1.0095085E1,6.2581906E0],"tree_param":{"num_deleted":"0","num_feature":"3","num_nodes":"51","size_leaf_vector":"1"}},{"base_weights":[1.1987182E-2,2.8492177E-2,-3.4873095E-1,-5.3341687E-3,1.8183087E-1,-4.951984E-2,-4.0161258E-1,5.9851814E-2,-6.663806E-2,-1.0833249E-1,2.510672E-1,-5.1007457E-2,3.8912877E-2,-6.4774595E-2,-2.850436E-1,7.757047E-2,-6.2477827E-2,4.5871764E-1,-3.7976882E-1,2.9963037E-1,1.5438068E-1,2.851961E-2,-3.758181E-1,4.1778017E-2,2.7549428E-1,-3.9380793E-2,6.0699504E-2,7.868082E-2,-7.6889396E-2,9.449624E-3,3.495007E-2,1.2635233E-1,2.1780418E-2,-9.19813E-2,-5.9755247E-2,5.3276797E-3,-7.429703E-2,-1.825285E-2,3.6804654E-2,-5.379507E-2,2.9270766E-2,1.9328391E-2,1.0782491E-2,-5.3310037E-2,3.8812175E-2],"categories":[],"categories_nodes":[],"categories_segments":[],"categories_sizes":[],"default_left":[0,0,0,0,0,0,0,0,0,0,0,0,0,0,0,0,0,0,0,0,0,0,0,0,0,0,0,0,0,0,0,0,0,0,0,0,0,0,0,0,0,0,0,0,0],"id":14,"left_children":[1,3,5,7,9,11,13,15,-1,17,19,-1,-1,-1,21,23,-1,25,27,29,31,-1,33,35,37,-1,-1,39,-1,-1,-1,41,-1,43,-1,-1,-1,-1,-1,-1,-1,-1,-1,-1,-1],"loss_changes":[4.933457E0,4.107513E0,5.538292E-1,2.8031805E1,2.9023657E0,1.5290923E0,6.954045E-1,7.2324085E0,0E0,4.525308E0,4.976883E-1,0E0,0E0,0E0,1.2770585E0,4.084281E0,0E0,1.4531083E0,3.5685773E0,7.449851E-1,4.5000017E-2,0E0,1.1992543E0,4.46836E0,3.8129997E0,0E0,0E0,1.4686857E0,0E0,0E0,0E0,1.7196894E-2,0E0,2.308246E0,0E0,0E0,0E0,0E0,0E0,0E0,0E0,0E0,0E0,0E0,0E0],"parents":[2147483647,0,0,1,1,2,2,3,3,4,4,5,5,6,6,7,7,9,9,10,10,14,14,15,15,17,17,18,18,19,19,20,20,22,22,23,23,24,24,27,27,31,31,33,33],"right_children":[2,4,6,8,10,12,14,16,-1,18,20,-1,-1,-1,22,24,-1,26,28,30,32,-1,34,36,38,-1,-1,40,-1,-1,-1,42,-1,44,-1,-1,-1,-1,-1,-1,-1,-1,-1,-1,-1],"split_conditions":[4.8556194E0,4.7382345E0,3.2142856E0,5E0,4.625E0,3.125E0,4.3076925E0,4.690822E0,-6.663806E-2,4.760426E0,4.8012457E0,-5.1007457E-2,3.8912877E-2,-6.4774595E-2,4.3333335E0,4.537373E0,-6.2477827E-2,3.125E0,3.125E0,4.760426E0,4.838021E0,2.851961E-2,4.9467826E0,4.625E0,3.5714285E0,-3.9380793E-2,6.0699504E-2,2.9E0,-7.6889396E-2,9.449624E-3,3.495007E-2,5E0,2.1780418E-2,4.932851E0,-5.9755247E-2,5.3276797E-3,-7.429703E-2,-1.825285E-2,3.6804654E-2,-5.379507E-2,2.9270766E-2,1.9328391E-2,1.0782491E-2,-5.3310037E-2,3.8812175E-2],"split_indices":[0,0,1,1,1,1,1,0,0,0,0,0,0,0,1,0,0,1,1,0,0,0,0,1,1,0,0,1,0,0,0,1,0,0,0,0,0,0,0,0,0,0,0,0,0],"split_type":[0,0,0,0,0,0,0,0,0,0,0,0,0,0,0,0,0,0,0,0,0,0,0,0,0,0,0,0,0,0,0,0,0,0,0,0,0,0,0,0,0,0,0,0,0],"sum_hessian":[8.2597516E2,7.907162E2,3.5258945E1,6.486008E2,1.421154E2,5.5864596E0,2.9672487E1,5.912108E2,5.739001E1,2.7268953E1,1.1484645E2,2.6457496E0,2.94071E0,8.071948E0,2.1600538E1,5.771602E2,1.4050569E1,8.6041975E0,1.8664757E1,7.505117E1,3.9795284E1,2.6721919E0,1.8928347E1,4.897967E2,8.736352E1,1.0294509E0,7.574747E0,8.935341E0,9.729415E0,1.5243625E1,5.9807545E1,2.9673885E1,1.0121397E1,8.922148E0,1.0006199E1,4.836421E2,6.1546125E0,1.4522478E1,7.284104E1,1.9123131E0,7.0230284E0,4.3883486E0,2.5285538E1,4.5923266E0,4.3298206E0],"tree_param":{"num_deleted":"0","num_feature":"3","num_nodes":"45","size_leaf_vector":"1"}},{"base_weights":[-4.1067474E-2,1.9353202E-2,-1.4781564E-1,-8.986842E-2,1.0320073E-1,-5.89322E-1,-4.0944293E-2,-2.4440056E-1,-1.4268639E-2,1.6854157E-1,-2.5911266E-1,-6.7380905E-2,-4.0026194E-1,-1.10730035E-2,-5.8591973E-2,-8.439791E-2,-4.4021076E-1,1.1228653E-1,-1.2571253E-1,6.859261E-2,3.3094212E-1,-2.6885862E-2,-3.984613E-1,-3.0693859E-2,-5.3044107E-2,-1.6581509E-1,1.2135218E-1,-2.8603157E-1,1.2333044E-1,-5.9497505E-2,-2.4601753E-1,2.906025E-1,-2.4085527E-2,-5.342174E-1,-4.3294434E-3,-6.5199286E-2,1.253075E-1,1.8499881E-1,4.762293E-1,-6.2316146E-2,2.699547E-1,-5.6766953E-2,-1.9139247E-1,1.9043854E-1,-3.845827E-1,-5.591296E-2,1.4802727E-1,-4.1360065E-2,1.2658882E-2,-6.8707145E-3,1.7916856E-2,-1.0070681E-2,-6.854427E-2,-5.779454E-3,4.17821E-2,5.225669E-3,-2.1878414E-2,-4.161041E-2,-7.206232E-2,2.4068361E-2,-9.590606E-3,3.345668E-2,5.7461313E-3,5.7273913E-2,7.685505E-3,7.0418306E-3,5.863827E-2,3.5540488E-2,-1.1797807E-2,3.8297814E-3,-3.841132E-2,3.320795E-2,-5.9948146E-2,-7.503363E-2,-1.8042438E-2,1.995961E-2,-3.6473253E-3],"categories":[],"categories_nodes":[],"categories_segments":[],"categories_sizes":[],"default_left":[0,0,0,0,0,0,0,0,0,0,0,0,0,0,0,0,0,0,0,0,0,0,0,0,0,0,0,0,0,0,0,0,0,0,0,0,0,0,0,0,0,0,0,0,0,0,0,0,0,0,0,0,0,0,0,0,0,0,0,0,0,0,0,0,0,0,0,0,0,0,0,0,0,0,0,0,0],"id":15,"left_children":[1,3,5,7,9,11,13,15,17,19,21,-1,23,25,-1,27,29,31,33,35,37,39,41,-1,-1,43,45,47,49,-1,51,53,55,57,59,-1,61,63,65,-1,67,-1,69,71,73,-1,75,-1,-1,-1,-1,-1,-1,-1,-1,-1,-1,-1,-1,-1,-1,-1,-1,-1,-1,-1,-1,-1,-1,-1,-1,-1,-1,-1,-1,-1,-1],"loss_changes":[4.9580936E0,4.5102234E0,1.3083601E1,2.49633E0,6.6368732E0,5.938778E-1,3.6519794E0,2.1631966E0,2.0555959E0,3.8170109E0,1.3790424E0,0E0,6.997442E-2,4.406892E0,0E0,1.7059282E0,7.9565763E-1,1.6680276E0,3.837614E0,6.117681E0,1.8172741E0,3.2087152E0,8.292427E-1,0E0,0E0,7.8000264E0,2.1871758E0,1.1336126E0,2.3047116E-1,0E0,9.274909E-1,1.3395326E0,6.004652E-1,9.053755E-2,1.3852403E0,0E0,1.9365764E0,1.9043077E0,1.943285E0,0E0,4.452327E-1,0E0,6.1433744E-1,4.494055E0,4.475918E0,0E0,1.0762374E0,0E0,0E0,0E0,0E0,0E0,0E0,0E0,0E0,0E0,0E0,0E0,0E0,0E0,0E0,0E0,0E0,0E0,0E0,0E0,0E0,0E0,0E0,0E0,0E0,0E0,0E0,0E0,0E0,0E0,0E0],"parents":[2147483647,0,0,1,1,2,2,3,3,4,4,5,5,6,6,7,7,8,8,9,9,10,10,12,12,13,13,15,15,16,16,17,17,18,18,19,19,20,20,21,21,22,22,25,25,26,26,27,27,28,28,30,30,31,31,32,32,33,33,34,34,36,36,37,37,38,38,40,40,42,42,43,43,44,44,46,46],"right_children":[2,4,6,8,10,12,14,16,18,20,22,-1,24,26,-1,28,30,32,34,36,38,40,42,-1,-1,44,46,48,50,-1,52,54,56,58,60,-1,62,64,66,-1,68,-1,70,72,74,-1,76,-1,-1,-1,-1,-1,-1,-1,-1,-1,-1,-1,-1,-1,-1,-1,-1,-1,-1,-1,-1,-1,-1,-1,-1,-1,-1,-1,-1,-1,-1],"split_conditions":[4.5E0,4.0479426E0,4.268383E0,3.3636363E0,4.690822E0,4.1704617E0,4.9467826E0,3E0,3.7222223E0,4.452641E0,3.3636363E0,-6.7380905E-2,4.625E0,4.7146726E0,-5.8591973E-2,3.4935462E0,3.2142856E0,3.4935462E0,3.8E0,2.8333333E0,3.7222223E0,3E0,3.9444444E0,-3.0693859E-2,-5.3044107E-2,4.3421173E0,4.625E0,2.9E0,2.5E0,-5.9497505E-2,3.862525E0,3.5E0,3.5714285E0,3.764706E0,3.9166667E0,-6.5199286E-2,3.3333333E0,2.75E0,4.537373E0,-6.2316146E-2,3.2142856E0,-5.6766953E-2,4.760426E0,4.625E0,4.4969172E0,-5.591296E-2,4.819993E0,-4.1360065E-2,1.2658882E-2,-6.8707145E-3,1.7916856E-2,-1.0070681E-2,-6.854427E-2,-5.779454E-3,4.17821E-2,5.225669E-3,-2.1878414E-2,-4.161041E-2,-7.206232E-2,2.4068361E-2,-9.590606E-3,3.345668E-2,5.7461313E-3,5.7273913E-2,7.685505E-3,7.0418306E-3,5.863827E-2,3.5540488E-2,-1.1797807E-2,3.8297814E-3,-3.841132E-2,3.320795E-2,-5.9948146E-2,-7.503363E-2,-1.8042438E-2,1.995961E-2,-3.6473253E-3],"split_indices":[1,0,0,1,0,0,0,1,1,0,1,0,1,0,0,0,1,0,1,1,1,1,1,0,0,0,1,1,1,0,0,1,1,1,1,0,1,1,0,0,1,0,0,1,0,0,0,0,0,0,0,0,0,0,0,0,0,0,0,0,0,0,0,0,0,0,0,0,0,0,0,0,0,0,0,0,0],"split_type":[0,0,0,0,0,0,0,0,0,0,0,0,0,0,0,0,0,0,0,0,0,0,0,0,0,0,0,0,0,0,0,0,0,0,0,0,0,0,0,0,0,0,0,0,0,0,0,0,0,0,0,0,0,0,0,0,0,0,0,0,0,0,0,0,0,0,0,0,0,0,0,0,0,0,0,0,0],"sum_hessian":[7.672774E2,4.9047925E2,2.7679813E2,2.1297786E2,2.775014E2,5.3064415E1,2.2373372E2,6.9231064E1,1.437468E2,2.3555536E2,4.1946033E1,3.4902985E1,1.8161428E1,2.1307494E2,1.0658783E1,3.8886612E1,3.0344454E1,6.7306404E1,7.644039E1,1.4669482E2,8.8860535E1,1.6178026E1,2.5768005E1,1.2533895E1,5.627535E0,9.8141754E1,1.1493319E2,1.9541502E1,1.934511E1,1.5738033E1,1.460642E1,2.8677551E1,3.862885E1,1.6731342E1,5.970905E1,9.937606E0,1.3675723E2,4.546427E1,4.3396263E1,5.0116367E0,1.116639E1,1.3222041E1,1.2545965E1,3.738743E1,6.0754322E1,3.5825143E0,1.1135068E2,1.4924841E1,4.6166606E0,4.305891E0,1.503922E1,1.1900348E1,2.706072E0,7.81669E0,2.086086E1,2.8274063E1,1.0354787E1,1.2220344E1,4.510998E0,1.5802166E1,4.3906883E1,3.252096E1,1.0423626E2,8.97807E0,3.6486202E1,9.614651E0,3.3781612E1,9.219462E0,1.9469274E0,6.0895443E0,6.4564214E0,3.2194263E1,5.1931667E0,2.0805534E1,3.9948788E1,8.6962425E1,2.438825E1],"tree_param":{"num_deleted":"0","num_feature":"3","num_nodes":"77","size_leaf_vector":"1"}},{"base_weights":[-1.3823791E-3,-2.8599486E-2,2.620399E-1,1.2017272E-2,-9.297781E-2,3.2816878E-1,-5.041309E-2,-2.9178672E-2,2.59024E-1,-3.5301555E-2,-6.643283E-2,3.9420697E-1,-3.5220665E-1,-1.20081894E-1,1.1161797E-2,1.934069E-1,5.2268922E-2,-4.8332173E-2,1.925269E-1,6.6309834E-1,3.070059E-1,4.5733906E-2,-6.8168424E-2,-4.7407985E-1,-1.2484365E-2,9.0409115E-2,-2.717836E-2,2.6888096E-1,-3.943845E-1,-1.3254255E-1,1.0150822E-2,3.7692982E-1,-1.3238057E-2,2.143949E-2,7.354286E-2,6.789011E-2,5.4387337E-1,-7.04613E-2,-3.823149E-2,1.9715343E-2,-1.7612275E-2,-2.208974E-2,1.3162525E-2,1.8391049E-2,-5.427984E-3,3.260496E-2,7.1745375E-3,-5.103792E-2,-1.884822E-2,-1.1580111E-2,-2.0484935E-2,1.4900288E-3,-3.292243E-2,2.205065E-2,5.1731993E-2,-2.265667E-2,3.0443946E-2,2.8477153E-2,6.948086E-2],"categories":[],"categories_nodes":[],"categories_segments":[],"categories_sizes":[],"default_left":[0,0,0,0,0,0,0,0,0,0,0,0,0,0,0,0,0,0,0,0,0,0,0,0,0,0,0,0,0,0,0,0,0,0,0,0,0,0,0,0,0,0,0,0,0,0,0,0,0,0,0,0,0,0,0,0,0,0,0],"id":16,"left_children":[1,3,5,7,9,11,-1,13,15,17,-1,19,21,23,25,27,-1,29,31,33,35,-1,-1,37,39,41,43,45,47,49,51,53,-1,-1,-1,55,57,-1,-1,-1,-1,-1,-1,-1,-1,-1,-1,-1,-1,-1,-1,-1,-1,-1,-1,-1,-1,-1,-1],"loss_changes":[5.645557E0,1.8671855E0,3.9015489E0,4.469198E0,9.077745E0,3.2160082E0,0E0,1.3826776E0,9.849801E-1,7.571819E-1,0E0,1.2712631E0,2.0688083E0,4.4073863E0,7.9795516E-1,2.4064078E0,0E0,1.1788197E0,8.784779E-1,3.1424952E-1,2.7586803E0,0E0,0E0,3.014059E-1,3.1182356E0,1.1273818E0,1.0238258E0,5.0119495E-1,5.4408967E-2,9.498322E-2,2.3383011E-1,8.537662E-2,0E0,0E0,0E0,1.8594424E0,7.6626635E-1,0E0,0E0,0E0,0E0,0E0,0E0,0E0,0E0,0E0,0E0,0E0,0E0,0E0,0E0,0E0,0E0,0E0,0E0,0E0,0E0,0E0,0E0],"parents":[2147483647,0,0,1,1,2,2,3,3,4,4,5,5,7,7,8,8,9,9,11,11,12,12,13,13,14,14,15,15,17,17,18,18,19,19,20,20,23,23,24,24,25,25,26,26,27,27,28,28,29,29,30,30,31,31,35,35,36,36],"right_children":[2,4,6,8,10,12,-1,14,16,18,-1,20,22,24,26,28,-1,30,32,34,36,-1,-1,38,40,42,44,46,48,50,52,54,-1,-1,-1,56,58,-1,-1,-1,-1,-1,-1,-1,-1,-1,-1,-1,-1,-1,-1,-1,-1,-1,-1,-1,-1,-1,-1],"split_conditions":[1.1E1,4.5E0,2.6E1,4.25E0,8E0,4.3076925E0,-5.041309E-2,3.25E0,6E0,6E0,-6.643283E-2,3.3636363E0,1.2E1,3E0,3E0,4E0,5.2268922E-2,5E0,5E0,2.8333333E0,3.8E0,4.5733906E-2,-6.8168424E-2,2.75E0,2.8333333E0,3.3333333E0,3.3333333E0,4.3076925E0,5E0,4.625E0,4E0,4.75E0,-1.3238057E-2,2.143949E-2,7.354286E-2,1.8E1,1.6E1,-7.04613E-2,-3.823149E-2,1.9715343E-2,-1.7612275E-2,-2.208974E-2,1.3162525E-2,1.8391049E-2,-5.427984E-3,3.260496E-2,7.1745375E-3,-5.103792E-2,-1.884822E-2,-1.1580111E-2,-2.0484935E-2,1.4900288E-3,-3.292243E-2,2.205065E-2,5.1731993E-2,-2.265667E-2,3.0443946E-2,2.8477153E-2,6.948086E-2],"split_indices":[2,1,2,1,2,1,0,1,2,2,0,1,2,2,2,2,0,1,1,1,1,0,0,1,1,1,1,1,2,1,2,1,0,0,0,2,2,0,0,0,0,0,0,0,0,0,0,0,0,0,0,0,0,0,0,0,0,0,0],"split_type":[0,0,0,0,0,0,0,0,0,0,0,0,0,0,0,0,0,0,0,0,0,0,0,0,0,0,0,0,0,0,0,0,0,0,0,0,0,0,0,0,0,0,0,0,0,0,0,0,0,0,0,0,0,0,0,0,0,0,0],"sum_hessian":[7.8538544E2,7.126455E2,7.273996E1,4.3746127E2,2.751842E2,6.748679E1,5.253166E0,3.75686E2,6.1775288E1,2.5091666E2,2.4267557E1,6.1899353E1,5.5874357E0,1.148673E2,2.608187E2,5.085322E1,1.0922066E1,2.3808714E2,1.2829508E1,1.3540846E1,4.835851E1,1.5039842E0,4.0834513E0,2.5981525E1,8.888577E1,8.4598816E1,1.7621988E2,4.5547367E1,5.305855E0,9.70612E1,1.4102594E2,8.082263E0,4.747245E0,2.4300518E0,1.1110794E1,2.470531E1,2.3653198E1,5.4959865E0,2.048554E1,3.8876335E1,5.0009438E1,9.381399E0,7.5217415E1,1.9392101E1,1.5682777E2,3.480121E1,1.0746159E1,2.4480217E0,2.857833E0,8.092572E1,1.6135483E1,1.4002246E2,1.0034826E0,5.0387425E0,3.043521E0,1.1024369E1,1.3680942E1,9.769376E0,1.38838215E1],"tree_param":{"num_deleted":"0","num_feature":"3","num_nodes":"59","size_leaf_vector":"1"}},{"base_weights":[-1.4321648E-2,7.6825E-3,-3.1313232E-1,-1.645702E-2,1.9471152E-1,-5.971055E-2,-2.786001E-1,4.0512268E-2,-4.536041E-1,-3.542656E-1,2.7650946E-1,5.0207954E-2,-3.3253124E-1,-1.361821E-1,7.20936E-2,-5.938914E-1,7.676251E-3,1.88049E-1,-7.3343866E-2,2.2850912E-2,3.021213E-1,-5.3897476E-1,-2.50074E-1,-2.4975672E-2,-5.156508E-1,-2.8149366E-2,1.24518305E-1,-2.985387E-1,-6.334411E-1,-4.710639E-2,5.388804E-2,3.524218E-2,2.2098305E-2,-1.46061955E-2,-6.2260397E-2,3.7112597E-2,-3.0596474E-1,-3.0199174E-2,2.4568941E-2,-3.0867074E-2,-7.055902E-2,2.0079213E-4,-7.915483E-2,1.4584208E-2,-3.635561E-2,-5.513611E-2,-1.2096102E-2,-6.574764E-2,-3.0552164E-2,-1.691447E-2,-5.7260174E-2],"categories":[],"categories_nodes":[],"categories_segments":[],"categories_sizes":[],"default_left":[0,0,0,0,0,0,0,0,0,0,0,0,0,0,0,0,0,0,0,0,0,0,0,0,0,0,0,0,0,0,0,0,0,0,0,0,0,0,0,0,0,0,0,0,0,0,0,0,0,0,0],"id":17,"left_children":[1,3,5,7,9,-1,11,13,15,17,19,-1,21,23,25,27,-1,29,-1,-1,31,33,35,37,39,41,43,45,47,-1,-1,-1,-1,-1,-1,-1,49,-1,-1,-1,-1,-1,-1,-1,-1,-1,-1,-1,-1,-1,-1],"loss_changes":[5.2149343E0,3.3413153E0,3.670931E-1,1.6349741E1,3.8968723E0,0E0,2.2879188E0,3.2524085E0,5.6771765E0,2.4839616E0,2.2170067E-2,0E0,6.7757607E-1,3.7199624E0,2.597617E0,5.114231E-1,0E0,1.5234532E0,0E0,0E0,1.0689163E-1,3.281803E-1,1.362299E0,5.2822275E0,5.683613E-1,3.9227645E0,3.4282465E0,3.361832E-1,2.0895576E-1,0E0,0E0,0E0,0E0,0E0,0E0,0E0,1.1269529E0,0E0,0E0,0E0,0E0,0E0,0E0,0E0,0E0,0E0,0E0,0E0,0E0,0E0,0E0],"parents":[2147483647,0,0,1,1,2,2,3,3,4,4,6,6,7,7,8,8,9,9,10,10,12,12,13,13,14,14,15,15,17,17,20,20,21,21,22,22,23,23,24,24,25,25,26,26,27,27,28,28,36,36],"right_children":[2,4,6,8,10,-1,12,14,16,18,20,-1,22,24,26,28,-1,30,-1,-1,32,34,36,38,40,42,44,46,48,-1,-1,-1,-1,-1,-1,-1,50,-1,-1,-1,-1,-1,-1,-1,-1,-1,-1,-1,-1,-1,-1],"split_conditions":[4.819993E0,4.760426E0,3.125E0,4.75E0,4.625E0,-5.971055E-2,3.2142856E0,3.4935462E0,4.7382345E0,3.125E0,4.781605E0,5.0207954E-2,4.3076925E0,3.7222223E0,3.625E0,5E0,7.676251E-3,2.8333333E0,-7.3343866E-2,2.2850912E-2,4.8012457E0,4.838021E0,4.3333335E0,3.3333333E0,3.9375E0,3.5714285E0,4.6650233E0,4.537373E0,4.690822E0,-4.710639E-2,5.388804E-2,3.524218E-2,2.2098305E-2,-1.46061955E-2,-6.2260397E-2,3.7112597E-2,4.9467826E0,-3.0199174E-2,2.4568941E-2,-3.0867074E-2,-7.055902E-2,2.0079213E-4,-7.915483E-2,1.4584208E-2,-3.635561E-2,-5.513611E-2,-1.2096102E-2,-6.574764E-2,-3.0552164E-2,-1.691447E-2,-5.7260174E-2],"split_indices":[0,0,1,1,1,0,1,0,0,1,0,0,1,1,1,1,0,1,0,0,0,0,1,1,1,1,0,0,0,0,0,0,0,0,0,0,0,0,0,0,0,0,0,0,0,0,0,0,0,0,0],"split_type":[0,0,0,0,0,0,0,0,0,0,0,0,0,0,0,0,0,0,0,0,0,0,0,0,0,0,0,0,0,0,0,0,0,0,0,0,0,0,0,0,0,0,0,0,0,0,0,0,0,0,0],"sum_hessian":[7.917711E2,7.383723E2,5.339878E1,6.547738E2,8.359854E1,4.023182E0,4.93756E1,5.8008417E2,7.468961E1,1.0408974E1,7.318957E1,2.6536138E0,4.6721985E1,8.745729E1,4.9262686E2,5.897133E1,1.5718283E1,4.4904847E0,5.9184895E0,2.8916964E1,4.4272602E1,1.1755072E1,3.4966915E1,6.8460266E1,1.8997025E1,1.6932265E2,3.2330423E2,7.9736233E0,5.0997707E1,1.4408425E0,3.049642E0,2.52659E1,1.90067E1,2.5449135E0,9.210157E0,2.4207861E0,3.2546127E1,3.3775997E1,3.468427E1,1.0346918E1,8.650107E0,1.638474E2,5.4752526E0,3.1044232E2,1.2861911E1,2.421362E0,5.5522614E0,4.6578663E1,4.4190454E0,2.2589228E1,9.9569E0],"tree_param":{"num_deleted":"0","num_feature":"3","num_nodes":"51","size_leaf_vector":"1"}},{"base_weights":[-1.966682E-2,-9.343038E-2,7.901693E-2,-2.7253902E-1,-3.915177E-2,1.2843998E-1,-2.5322065E-1,-1.858369E-1,-5.6333154E-1,-1.9059105E-2,-5.7693787E-2,9.394321E-2,4.072865E-1,8.668089E-2,-5.637649E-1,-4.7616968E-1,-5.5312784E-3,-3.164397E-2,-6.261283E-1,-1.0085513E-1,6.681715E-2,-4.5314867E-2,1.6832812E-1,2.4699058E-1,6.007393E-2,-3.6065288E-2,1.7511456E-1,-6.762064E-2,1.0865931E-1,-3.8377377E-1,-6.7119256E-2,-7.7723674E-2,-4.5988593E-2,-2.699518E-1,5.7840973E-2,-8.162924E-2,1.7526117E-1,-2.2630994E-1,5.634335E-2,2.3744938E-1,1.3178062E-3,4.968655E-1,-2.0193408E-1,6.0495585E-2,-2.7262619E-2,5.2575696E-2,-4.52237E-2,-5.0710537E-2,-3.0049717E-2,-7.6918065E-4,-7.61837E-2,2.879529E-2,-1.6843943E-3,9.582899E-3,-5.162234E-2,3.67074E-2,-2.2537808E-3,-3.8206633E-2,-8.680294E-3,1.5869217E-2,-2.7209818E-2,3.99754E-2,1.6462142E-2,-2.6408514E-2,4.2572733E-2,6.2668994E-2,-2.3235785E-2,2.1479284E-2,-6.2362175E-2,5.5376636E-3,-3.9891988E-2],"categories":[],"categories_nodes":[],"categories_segments":[],"categories_sizes":[],"default_left":[0,0,0,0,0,0,0,0,0,0,0,0,0,0,0,0,0,0,0,0,0,0,0,0,0,0,0,0,0,0,0,0,0,0,0,0,0,0,0,0,0,0,0,0,0,0,0,0,0,0,0,0,0,0,0,0,0,0,0,0,0,0,0,0,0,0,0,0,0,0,0],"id":18,"left_children":[1,3,5,7,9,11,13,15,17,19,-1,21,23,25,27,29,-1,-1,31,33,35,37,39,41,-1,-1,43,-1,45,47,-1,-1,-1,49,51,53,55,57,59,61,63,65,67,-1,69,-1,-1,-1,-1,-1,-1,-1,-1,-1,-1,-1,-1,-1,-1,-1,-1,-1,-1,-1,-1,-1,-1,-1,-1,-1,-1],"loss_changes":[5.701285E0,4.345465E0,5.535387E0,2.5184493E0,3.717339E0,2.7743654E0,4.6651692E0,3.067369E0,1.6472054E-1,2.3503797E0,0E0,2.7164636E0,8.4054136E-1,9.2344147E-1,1.8114948E0,1.9627905E-1,0E0,0E0,8.559513E-2,4.611937E0,2.6441743E0,1.7025107E0,1.9698601E0,2.2471468E0,0E0,0E0,1.6545463E0,0E0,1.2097616E0,4.7132492E-2,0E0,0E0,0E0,1.0714146E1,1.5375111E0,5.4206734E0,3.6019711E0,6.888722E-1,2.0469246E0,1.36094E0,5.8529654E0,1.3369274E0,1.4614677E0,0E0,4.4469342E-1,0E0,0E0,0E0,0E0,0E0,0E0,0E0,0E0,0E0,0E0,0E0,0E0,0E0,0E0,0E0,0E0,0E0,0E0,0E0,0E0,0E0,0E0,0E0,0E0,0E0,0E0],"parents":[2147483647,0,0,1,1,2,2,3,3,4,4,5,5,6,6,7,7,8,8,9,9,11,11,12,12,13,13,14,14,15,15,18,18,19,19,20,20,21,21,22,22,23,23,26,26,28,28,29,29,33,33,34,34,35,35,36,36,37,37,38,38,39,39,40,40,41,41,42,42,44,44],"right_children":[2,4,6,8,10,12,14,16,18,20,-1,22,24,26,28,30,-1,-1,32,34,36,38,40,42,-1,-1,44,-1,46,48,-1,-1,-1,50,52,54,56,58,60,62,64,66,68,-1,70,-1,-1,-1,-1,-1,-1,-1,-1,-1,-1,-1,-1,-1,-1,-1,-1,-1,-1,-1,-1,-1,-1,-1,-1,-1,-1],"split_conditions":[4E0,4.0479426E0,4.6650233E0,3.862525E0,4.9467826E0,1.8E1,7E0,3.4935462E0,2E0,2E0,-5.7693787E-2,3.862525E0,4.0479426E0,4.7382345E0,5.214222E0,3E0,-5.5312784E-3,-3.164397E-2,3E0,4.7146726E0,4.452641E0,7E0,8E0,3.4935462E0,6.007393E-2,-3.6065288E-2,4.781605E0,-6.762064E-2,5.279821E0,2E0,-6.7119256E-2,-7.7723674E-2,-4.5988593E-2,4.3421173E0,4.760426E0,4.3421173E0,4.6065807E0,3.4935462E0,1.1E1,4.0479426E0,1.1E1,2.6E1,2.2E1,6.0495585E-2,5.0477467E0,5.2575696E-2,-4.52237E-2,-5.0710537E-2,-3.0049717E-2,-7.6918065E-4,-7.61837E-2,2.879529E-2,-1.6843943E-3,9.582899E-3,-5.162234E-2,3.67074E-2,-2.2537808E-3,-3.8206633E-2,-8.680294E-3,1.5869217E-2,-2.7209818E-2,3.99754E-2,1.6462142E-2,-2.6408514E-2,4.2572733E-2,6.2668994E-2,-2.3235785E-2,2.1479284E-2,-6.2362175E-2,5.5376636E-3,-3.9891988E-2],"split_indices":[2,0,0,0,0,2,2,0,2,2,0,0,0,0,0,2,0,0,2,0,0,2,2,0,0,0,0,0,0,2,0,0,0,0,0,0,0,0,2,0,2,2,2,0,0,0,0,0,0,0,0,0,0,0,0,0,0,0,0,0,0,0,0,0,0,0,0,0,0,0,0],"split_type":[0,0,0,0,0,0,0,0,0,0,0,0,0,0,0,0,0,0,0,0,0,0,0,0,0,0,0,0,0,0,0,0,0,0,0,0,0,0,0,0,0,0,0,0,0,0,0,0,0,0,0,0,0,0,0,0,0,0,0,0,0,0,0,0,0,0,0,0,0,0,0],"sum_hessian":[7.8120844E2,4.4708054E2,3.341279E2,1.0304182E2,3.440387E2,2.9139407E2,4.2733826E1,8.0638016E1,2.2403803E1,3.326459E2,1.1392814E1,2.6050348E2,3.0890602E1,2.0746708E1,2.1987118E1,2.4187698E1,5.6450317E1,5.767478E0,1.6636326E1,1.70281E2,1.6236488E2,9.083658E1,1.696669E2,1.8138063E1,1.2752539E1,2.9163556E0,1.7830353E1,1.8832378E1,3.1547382E0,1.8425903E1,5.761794E0,6.7895474E0,9.846778E0,8.209966E1,8.818135E1,6.864529E1,9.37196E1,3.2229E1,5.860758E1,1.197031E2,4.996379E1,1.1583697E1,6.554366E0,5.070839E0,1.2759514E1,1.8452265E0,1.3095115E0,5.3754783E0,1.3050426E1,5.421129E1,2.7888372E1,2.0907528E1,6.727382E1,4.9295788E1,1.9349497E1,4.7145298E1,4.6574303E1,1.4406161E1,1.7822838E1,4.5077408E1,1.353017E1,3.5685432E1,8.401767E1,3.0972813E1,1.8990978E1,9.952457E0,1.6312398E0,3.5433426E0,3.0110233E0,1.1134681E1,1.6248332E0],"tree_param":{"num_deleted":"0","num_feature":"3","num_nodes":"71","size_leaf_vector":"1"}},{"base_weights":[1.7487375E-2,6.1268136E-2,-1.3430598E-1,4.3161035E-2,3.6879E-1,-6.370537E-2,-6.321062E-2,1.846609E-1,3.1359512E-2,5.046336E-1,-1.6026378E-1,-8.449305E-2,1.5693873E-1,-4.0439613E-2,2.829856E-1,-1.3785033E-1,5.9388667E-2,6.427134E-2,3.5429248E-1,-4.7263686E-2,4.38078E-2,-3.673275E-2,-5.2218195E-2,5.2052833E-2,-4.7283586E-2,3.456066E-1,-2.1070419E-1,-2.0736651E-1,2.3588172E-1,6.5143645E-2,-5.9414294E-2,-3.4844932E-1,5.8897536E-2,-6.9884183E-3,1.9811662E-2,2.879317E-4,-5.9021222E-3,2.2381572E-2,4.9894866E-2,-5.512261E-2,4.101788E-2,-8.351463E-3,-5.9648234E-2,4.9036093E-2,8.020657E-3,3.0661188E-3,1.4236524E-2,2.3855334E-3,-5.6813844E-2],"categories":[],"categories_nodes":[],"categories_segments":[],"categories_sizes":[],"default_left":[0,0,0,0,0,0,0,0,0,0,0,0,0,0,0,0,0,0,0,0,0,0,0,0,0,0,0,0,0,0,0,0,0,0,0,0,0,0,0,0,0,0,0,0,0,0,0,0,0],"id":19,"left_children":[1,3,5,7,9,11,-1,13,15,17,19,21,23,-1,25,27,29,-1,31,-1,-1,-1,33,-1,35,37,39,41,43,45,-1,47,-1,-1,-1,-1,-1,-1,-1,-1,-1,-1,-1,-1,-1,-1,-1,-1,-1],"loss_changes":[5.2136264E0,3.3731043E0,6.1331897E0,9.559357E-1,2.503634E0,7.239692E-1,0E0,2.6704385E0,2.5350747E0,3.3412647E-1,1.6362036E0,1.2794234E0,1.0412475E0,0E0,1.2601705E0,2.0237799E0,1.7604015E0,0E0,2.7096262E0,0E0,0E0,0E0,5.8369106E-1,0E0,5.8717392E-3,5.3192854E-1,1.2714806E0,3.064606E0,4.514861E-1,1.2063383E0,0E0,3.7588292E-1,0E0,0E0,0E0,0E0,0E0,0E0,0E0,0E0,0E0,0E0,0E0,0E0,0E0,0E0,0E0,0E0,0E0],"parents":[2147483647,0,0,1,1,2,2,3,3,4,4,5,5,7,7,8,8,9,9,10,10,11,11,12,12,14,14,15,15,16,16,18,18,22,22,24,24,25,25,26,26,27,27,28,28,29,29,31,31],"right_children":[2,4,6,8,10,12,-1,14,16,18,20,22,24,-1,26,28,30,-1,32,-1,-1,-1,34,-1,36,38,40,42,44,46,-1,48,-1,-1,-1,-1,-1,-1,-1,-1,-1,-1,-1,-1,-1,-1,-1,-1,-1],"split_conditions":[4.75E0,1.8E1,7E0,2.75E0,2.6E1,3E0,-6.321062E-2,3E0,3.2142856E0,3.5E0,3.764706E0,5E0,5E0,-4.0439613E-2,8E0,9E0,1.7E1,6.427134E-2,3.625E0,-4.7263686E-2,4.38078E-2,-3.673275E-2,2E0,5.2052833E-2,6E0,2.5E0,1.7E1,5E0,2.8333333E0,6E0,-5.9414294E-2,3.5714285E0,5.8897536E-2,-6.9884183E-3,1.9811662E-2,2.879317E-4,-5.9021222E-3,2.2381572E-2,4.9894866E-2,-5.512261E-2,4.101788E-2,-8.351463E-3,-5.9648234E-2,4.9036093E-2,8.020657E-3,3.0661188E-3,1.4236524E-2,2.3855334E-3,-5.6813844E-2],"split_indices":[1,2,2,1,2,2,0,2,1,1,1,1,1,0,2,2,2,0,1,0,0,0,2,0,2,1,2,2,1,2,0,1,0,0,0,0,0,0,0,0,0,0,0,0,0,0,0,0,0],"split_type":[0,0,0,0,0,0,0,0,0,0,0,0,0,0,0,0,0,0,0,0,0,0,0,0,0,0,0,0,0,0,0,0,0,0,0,0,0,0,0,0,0,0,0,0,0,0,0,0,0],"sum_hessian":[7.8228143E2,6.0762463E2,1.746568E2,5.749137E2,3.2710964E1,1.5395068E2,2.0706116E1,4.3130714E1,5.3178296E2,2.606459E1,6.646373E0,1.4125922E2,1.269148E1,5.7242475E0,3.7406467E1,7.50136E1,4.5676938E2,1.1879197E1,1.4185394E1,4.504711E0,2.1416614E0,1.3405087E1,1.27854126E2,4.0076256E0,8.683855E0,3.3462006E1,3.944463E0,6.3624287E1,1.1389316E1,4.5367465E2,3.0947204E0,3.429932E0,1.0755462E1,1.200996E2,7.7545223E0,1.7897464E0,6.8941083E0,2.002047E1,1.3441534E1,2.6198192E0,1.3246439E0,4.9184086E1,1.4440202E1,3.5068443E0,7.882471E0,3.1459344E2,1.3908119E2,1.6036527E0,1.8262792E0],"tree_param":{"num_deleted":"0","num_feature":"3","num_nodes":"49","size_leaf_vector":"1"}},{"base_weights":[-1.4877549E-2,-1.9244078E-1,3.9567936E-2,-1.3126495E-1,-6.626719E-2,6.5134786E-2,-2.505897E-1,7.043565E-2,-1.5714876E-1,1.0160438E-2,1.4655127E-1,6.741711E-2,-3.084597E-1,-4.533129E-2,2.3180375E-2,-8.029933E-2,-1.1741277E-1,8.403666E-2,-6.46686E-2,3.7971717E-1,7.593322E-2,-2.5694683E-1,6.684995E-2,-1.9206068E-1,-4.737495E-1,-1.281835E-2,-2.0974144E-1,1.4610709E-1,-8.60871E-2,4.439388E-1,-4.911767E-2,-2.3167945E-1,1.2916943E-1,3.5140978E-3,-4.7054134E-2,-4.6722555E-1,-6.223854E-2,-5.623668E-2,-2.4361624E-1,-1.4119968E-2,1.2726006E-2,-3.4667205E-2,-1.015767E-2,5.1918398E-3,4.167975E-2,-1.1456945E-3,-5.6483325E-2,-2.9816045E-3,5.669227E-2,-7.963608E-3,-5.2448243E-2,3.6285136E-2,9.257739E-3,-1.7730726E-2,-5.6916237E-2,-1.7212842E-2,3.0957937E-2,4.4786718E-2,-5.310872E-2],"categories":[],"categories_nodes":[],"categories_segments":[],"categories_sizes":[],"default_left":[0,0,0,0,0,0,0,0,0,0,0,0,0,0,0,0,0,0,0,0,0,0,0,0,0,0,0,0,0,0,0,0,0,0,0,0,0,0,0,0,0,0,0,0,0,0,0,0,0,0,0,0,0,0,0,0,0,0,0],"id":20,"left_children":[1,3,5,7,-1,9,11,13,15,17,19,21,23,-1,-1,-1,25,27,-1,29,31,33,-1,35,37,39,41,43,45,47,-1,49,51,-1,-1,53,55,-1,57,-1,-1,-1,-1,-1,-1,-1,-1,-1,-1,-1,-1,-1,-1,-1,-1,-1,-1,-1,-1],"loss_changes":[7.3439965E0,5.0408206E0,4.3309846E0,8.4107184E-1,0E0,2.3944633E0,8.913431E-1,1.6916049E0,3.5296009E0,1.5612546E1,3.5226636E0,1.7517323E0,6.824591E-1,0E0,0E0,0E0,1.2932482E0,3.0652726E0,0E0,3.0083966E0,2.761475E0,3.899742E-1,0E0,8.736619E-1,1.8786955E-1,1.1686157E0,1.0195131E0,5.388126E0,2.7771394E0,2.7546597E0,0E0,1.0696933E0,1.1877713E0,0E0,0E0,1.339482E-1,8.019802E-1,0E0,1.468917E0,0E0,0E0,0E0,0E0,0E0,0E0,0E0,0E0,0E0,0E0,0E0,0E0,0E0,0E0,0E0,0E0,0E0,0E0,0E0,0E0],"parents":[2147483647,0,0,1,1,2,2,3,3,5,5,6,6,7,7,8,8,9,9,10,10,11,11,12,12,16,16,17,17,19,19,20,20,21,21,23,23,24,24,25,25,26,26,27,27,28,28,29,29,31,31,32,32,35,35,36,36,38,38],"right_children":[2,4,6,8,-1,10,12,14,16,18,20,22,24,-1,-1,-1,26,28,-1,30,32,34,-1,36,38,40,42,44,46,48,-1,50,52,-1,-1,54,56,-1,58,-1,-1,-1,-1,-1,-1,-1,-1,-1,-1,-1,-1,-1,-1,-1,-1,-1,-1,-1,-1],"split_conditions":[3.862525E0,4.3076925E0,4.819993E0,2.75E0,-6.626719E-2,4.537373E0,3.2142856E0,2.5E0,2.8333333E0,4.625E0,4.6065807E0,3.125E0,4.9467826E0,-4.533129E-2,2.3180375E-2,-8.029933E-2,3.5714285E0,4.3421173E0,-6.46686E-2,5E0,3.9444444E0,4.8556194E0,6.684995E-2,4.625E0,5.271784E0,3.3636363E0,3.8E0,4.268383E0,4.3076925E0,3.5714285E0,-4.911767E-2,3.5E0,4.3076925E0,3.5140978E-3,-4.7054134E-2,4.838021E0,4.932851E0,-5.623668E-2,5.279821E0,-1.4119968E-2,1.2726006E-2,-3.4667205E-2,-1.015767E-2,5.1918398E-3,4.167975E-2,-1.1456945E-3,-5.6483325E-2,-2.9816045E-3,5.669227E-2,-7.963608E-3,-5.2448243E-2,3.6285136E-2,9.257739E-3,-1.7730726E-2,-5.6916237E-2,-1.7212842E-2,3.0957937E-2,4.4786718E-2,-5.310872E-2],"split_indices":[0,1,0,1,0,0,1,1,1,1,0,1,0,0,0,0,1,0,0,1,1,0,0,1,0,1,1,0,1,1,0,1,1,0,0,0,0,0,0,0,0,0,0,0,0,0,0,0,0,0,0,0,0,0,0,0,0,0,0],"split_type":[0,0,0,0,0,0,0,0,0,0,0,0,0,0,0,0,0,0,0,0,0,0,0,0,0,0,0,0,0,0,0,0,0,0,0,0,0,0,0,0,0,0,0,0,0,0,0,0,0,0,0,0,0,0,0,0,0,0,0],"sum_hessian":[7.5786945E2,1.7725444E2,5.80615E2,1.5798071E2,1.9273718E1,5.343105E2,4.6304527E1,1.7771824E1,1.402089E2,3.1962015E2,2.1469032E2,7.1036463E0,3.9200882E1,3.7597404E0,1.4012084E1,7.0131545E0,1.3319574E2,2.8809036E2,3.1529772E1,4.8889725E1,1.658006E2,4.9857154E0,2.117931E0,2.4270952E1,1.4929928E1,6.2983635E1,7.0212105E1,2.1118114E2,7.6909225E1,4.5988667E1,2.9010568E0,2.3966137E1,1.4183446E2,2.4588065E0,2.526909E0,6.947145E0,1.7323807E1,9.736891E0,5.1930375E0,3.2859776E1,3.0123861E1,3.0012678E1,4.0199425E1,1.5755168E2,5.362946E1,6.742284E1,9.486392E0,9.634085E0,3.6354584E1,1.6612017E1,7.35412E0,1.7995646E1,1.2383881E2,2.5198443E0,4.4273005E0,1.3786349E1,3.5374587E0,1.3610963E0,3.8319411E0],"tree_param":{"num_deleted":"0","num_feature":"3","num_nodes":"59","size_leaf_vector":"1"}},{"base_weights":[2.6036069E-2,4.058485E-2,-3.332315E-1,-3.7375286E-2,1.1192144E-1,-1.05318144E-1,-3.9492583E-1,2.5773788E-2,-4.5651314E-1,-1.232002E-1,1.2597091E-1,-4.8465054E-2,2.2601603E-1,-5.4360237E-2,-3.0955577E-1,-1.1485383E-1,7.635083E-2,-2.65012E-1,-6.456587E-2,2.8939387E-1,-3.4399518E-1,1.8569644E-1,9.014398E-2,6.7037776E-2,-4.073269E-2,3.052939E-2,-4.6038887E-1,1.0414417E-2,-5.0981027E-1,5.149269E-1,5.3565208E-2,-1.1279875E-1,-3.9214158E-1,-4.0738575E-2,5.476648E-1,2.8416354E-2,-5.302345E-1,2.4193351E-1,-1.06326446E-1,1.3798324E-2,1.9839256E-1,-5.467105E-2,-2.37982E-1,-6.0751634E-3,2.6916051E-2,-6.201611E-2,-3.287699E-2,3.2572202E-2,7.2662674E-2,3.4477361E-3,5.233226E-2,-4.9838696E-2,2.3938944E-3,-5.8866084E-2,-2.8123884E-2,7.200116E-2,-1.2244589E-2,-6.8831824E-2,-2.3351297E-2,-5.727888E-3,3.4462925E-2,-3.0952322E-3,-5.6609344E-2,1.5713213E-2,-1.8034192E-2,-6.2478688E-2,2.2773601E-2,4.1287404E-2,-5.0722938E-2],"categories":[],"categories_nodes":[],"categories_segments":[],"categories_sizes":[],"default_left":[0,0,0,0,0,0,0,0,0,0,0,0,0,0,0,0,0,0,0,0,0,0,0,0,0,0,0,0,0,0,0,0,0,0,0,0,0,0,0,0,0,0,0,0,0,0,0,0,0,0,0,0,0,0,0,0,0,0,0,0,0,0,0,0,0,0,0,0,0],"id":21,"left_children":[1,3,5,7,9,11,13,15,17,19,21,-1,23,-1,25,27,29,31,-1,33,35,37,39,-1,-1,-1,41,43,45,47,49,51,53,-1,55,-1,57,59,61,63,65,-1,67,-1,-1,-1,-1,-1,-1,-1,-1,-1,-1,-1,-1,-1,-1,-1,-1,-1,-1,-1,-1,-1,-1,-1,-1,-1,-1],"loss_changes":[4.1169963E0,4.205295E0,3.8955903E-1,9.585169E0,1.319377E0,1.1019197E0,1.3339257E-1,2.2512243E0,1.5462523E0,2.1730642E0,7.8128815E-1,0E0,1.6510922E0,0E0,1.756141E0,4.151215E0,2.2956963E0,4.4448698E-1,0E0,1.7487025E0,1.9386793E0,2.3066726E0,1.9398406E0,0E0,0E0,0E0,1.4611459E-1,1.2058749E0,1.9962549E-1,2.1857595E-1,1.973626E0,6.9195896E-1,1.2557793E-1,0E0,8.5173535E-1,0E0,4.0859985E-1,3.607789E0,7.8379244E-1,3.8939059E0,2.4887295E0,0E0,1.2247154E0,0E0,0E0,0E0,0E0,0E0,0E0,0E0,0E0,0E0,0E0,0E0,0E0,0E0,0E0,0E0,0E0,0E0,0E0,0E0,0E0,0E0,0E0,0E0,0E0,0E0,0E0],"parents":[2147483647,0,0,1,1,2,2,3,3,4,4,5,5,6,6,7,7,8,8,9,9,10,10,12,12,14,14,15,15,16,16,17,17,19,19,20,20,21,21,22,22,26,26,27,27,28,28,29,29,30,30,31,31,32,32,34,34,36,36,37,37,38,38,39,39,40,40,42,42],"right_children":[2,4,6,8,10,12,14,16,18,20,22,-1,24,-1,26,28,30,32,-1,34,36,38,40,-1,-1,-1,42,44,46,48,50,52,54,-1,56,-1,58,60,62,64,66,-1,68,-1,-1,-1,-1,-1,-1,-1,-1,-1,-1,-1,-1,-1,-1,-1,-1,-1,-1,-1,-1,-1,-1,-1,-1,-1,-1],"split_conditions":[4.8556194E0,4.268383E0,3.2142856E0,4.5E0,3E0,3.125E0,4.932851E0,3.4935462E0,4.625E0,2.5E0,4.3076925E0,-4.8465054E-2,5.0477467E0,-5.4360237E-2,4.9467826E0,3.6E0,2.5E0,4.0479426E0,-6.456587E-2,4.452641E0,4.3421173E0,4.690822E0,4.760426E0,6.7037776E-2,-4.073269E-2,3.052939E-2,5.271784E0,3.5E0,3.892857E0,4.0479426E0,4.3333335E0,3.4935462E0,4.1704617E0,-4.0738575E-2,4.6065807E0,2.8416354E-2,4.636886E0,4.401761E0,4.142857E0,4.75E0,4.625E0,-5.467105E-2,5.279821E0,-6.0751634E-3,2.6916051E-2,-6.201611E-2,-3.287699E-2,3.2572202E-2,7.2662674E-2,3.4477361E-3,5.233226E-2,-4.9838696E-2,2.3938944E-3,-5.8866084E-2,-2.8123884E-2,7.200116E-2,-1.2244589E-2,-6.8831824E-2,-2.3351297E-2,-5.727888E-3,3.4462925E-2,-3.0952322E-3,-5.6609344E-2,1.5713213E-2,-1.8034192E-2,-6.2478688E-2,2.2773601E-2,4.1287404E-2,-5.0722938E-2],"split_indices":[0,0,1,1,1,1,0,0,1,1,1,0,0,0,0,1,1,0,0,0,0,0,0,0,0,0,0,1,1,0,1,0,0,0,0,0,0,0,1,1,1,0,0,0,0,0,0,0,0,0,0,0,0,0,0,0,0,0,0,0,0,0,0,0,0,0,0,0,0],"split_type":[0,0,0,0,0,0,0,0,0,0,0,0,0,0,0,0,0,0,0,0,0,0,0,0,0,0,0,0,0,0,0,0,0,0,0,0,0,0,0,0,0,0,0,0,0,0,0,0,0,0,0,0,0,0,0,0,0,0,0,0,0,0,0,0,0,0,0,0,0],"sum_hessian":[7.840672E2,7.544041E2,2.9663069E1,3.6069498E2,3.9370917E2,6.895728E0,2.2767342E1,3.1428238E2,4.6412598E1,2.176118E1,3.71948E2,2.99926E0,3.896468E0,6.3466725E0,1.6420668E1,8.279713E1,2.3148524E2,2.4255808E1,2.215679E1,7.477491E0,1.42836895E1,1.3789163E2,2.3405635E2,2.2555025E0,1.6409655E0,3.0330045E0,1.3387664E1,6.359906E1,1.9198067E1,1.0365824E1,2.2111942E2,1.18977785E1,1.2358029E1,1.8659785E0,5.611512E0,3.1462016E0,1.1137488E1,1.1576871E2,2.212293E1,1.37915E2,9.614136E1,8.593974E0,4.7936893E0,5.0480114E1,1.3118945E1,1.0420715E1,8.777351E0,6.8142495E0,3.5515745E0,2.1351689E2,7.6025276E0,2.4222915E0,9.475487E0,2.9040918E0,9.453938E0,4.404298E0,1.2072146E0,6.4052386E0,4.7322497E0,2.9694267E1,8.607444E1,1.9923925E1,2.1990037E0,7.9448654E1,5.8466343E1,2.6106946E0,9.353066E1,1.2466661E0,3.5470233E0],"tree_param":{"num_deleted":"0","num_feature":"3","num_nodes":"69","size_leaf_vector":"1"}},{"base_weights":[-7.1480214E-3,-4.097129E-2,2.1330366E-1,-2.2022018E-2,-3.2983324E-1,2.4868302E-1,-3.610657E-1,-5.2959576E-2,5.9018884E-2,1.2445594E-1,-5.307061E-1,1.3026959E-1,3.7219715E-1,4.161484E-2,-6.623482E-2,-1.8562391E-1,-2.332822E-2,-1.0599149E-2,2.819518E-1,-6.0786325E-2,3.5441786E-1,-2.3791869E-1,-6.179298E-2,3.450515E-1,-1.4021201E-1,-4.6494257E-2,4.2390305E-1,1.3424222E-2,-2.3069905E-1,1.7009509E-1,-4.1927326E-2,1.3703759E-1,-1.3268462E-1,-1.05882995E-1,4.092052E-1,6.173048E-2,1.9982604E-2,-4.146701E-1,4.208331E-2,4.0081307E-1,-4.07712E-2,-4.7821525E-1,1.1437405E-1,6.952232E-2,3.7719434E-1,-3.89848E-2,-1.5296824E-2,7.706707E-3,2.4399986E-2,-8.422175E-3,1.8781404E-3,1.1422284E-3,2.9212525E-2,8.055202E-3,-3.4423444E-2,1.6812373E-2,-4.3148044E-2,5.6830198E-2,-8.523422E-3,-5.7785697E-2,-2.017898E-2,2.1135533E-2,5.609653E-2,-8.4676675E-2,3.35388E-2,2.9516777E-2,-5.300023E-2,3.1589147E-2,5.9405126E-2],"categories":[],"categories_nodes":[],"categories_segments":[],"categories_sizes":[],"default_left":[0,0,0,0,0,0,0,0,0,0,0,0,0,0,0,0,0,0,0,0,0,0,0,0,0,0,0,0,0,0,0,0,0,0,0,0,0,0,0,0,0,0,0,0,0,0,0,0,0,0,0,0,0,0,0,0,0,0,0,0,0,0,0,0,0,0,0,0,0],"id":22,"left_children":[1,3,5,7,9,11,13,15,17,19,21,23,25,-1,-1,27,29,31,33,-1,35,37,-1,39,41,-1,43,-1,45,47,49,51,53,55,57,-1,-1,59,-1,61,-1,63,65,-1,67,-1,-1,-1,-1,-1,-1,-1,-1,-1,-1,-1,-1,-1,-1,-1,-1,-1,-1,-1,-1,-1,-1,-1,-1],"loss_changes":[5.673849E0,3.6028824E0,2.1467443E0,1.5576208E0,3.7646532E0,1.3547482E0,1.7464352E0,1.7616441E0,2.6688895E0,2.4445813E0,5.755534E-1,2.9833913E0,2.2064486E0,0E0,0E0,1.2114716E0,1.332319E0,2.3948324E0,2.0624802E0,0E0,3.1170702E-1,1.1200047E0,0E0,1.357573E0,2.040081E0,0E0,2.984724E-1,0E0,8.326924E-1,2.0471871E-1,8.664965E-1,1.1689633E0,3.306456E0,1.0451617E0,2.4878278E0,0E0,0E0,1.2331021E-1,0E0,7.0040846E-1,0E0,3.3140903E0,1.783585E0,0E0,3.4319925E-1,0E0,0E0,0E0,0E0,0E0,0E0,0E0,0E0,0E0,0E0,0E0,0E0,0E0,0E0,0E0,0E0,0E0,0E0,0E0,0E0,0E0,0E0,0E0,0E0],"parents":[2147483647,0,0,1,1,2,2,3,3,4,4,5,5,6,6,7,7,8,8,9,9,10,10,11,11,12,12,15,15,16,16,17,17,18,18,20,20,21,21,23,23,24,24,26,26,28,28,29,29,30,30,31,31,32,32,33,33,34,34,37,37,39,39,41,41,42,42,44,44],"right_children":[2,4,6,8,10,12,14,16,18,20,22,24,26,-1,-1,28,30,32,34,-1,36,38,-1,40,42,-1,44,-1,46,48,50,52,54,56,58,-1,-1,60,-1,62,-1,64,66,-1,68,-1,-1,-1,-1,-1,-1,-1,-1,-1,-1,-1,-1,-1,-1,-1,-1,-1,-1,-1,-1,-1,-1,-1,-1],"split_conditions":[9E0,8E0,4.3076925E0,4E0,3.7222223E0,3.625E0,1.2E1,3.5714285E0,3.9375E0,3.3333333E0,4.5E0,3.3636363E0,1E1,4.161484E-2,-6.623482E-2,2.5E0,3.892857E0,3.3333333E0,5E0,-6.0786325E-2,3.5714285E0,4.3333335E0,-6.179298E-2,2.6E1,1.4E1,-4.6494257E-2,3.7222223E0,1.3424222E-2,2.8333333E0,3E0,4.75E0,6E0,6E0,4.4375E0,5E0,6.173048E-2,1.9982604E-2,3.9444444E0,4.208331E-2,1.1E1,-4.07712E-2,3.5E0,3.5714285E0,6.952232E-2,4.142857E0,-3.89848E-2,-1.5296824E-2,7.706707E-3,2.4399986E-2,-8.422175E-3,1.8781404E-3,1.1422284E-3,2.9212525E-2,8.055202E-3,-3.4423444E-2,1.6812373E-2,-4.3148044E-2,5.6830198E-2,-8.523422E-3,-5.7785697E-2,-2.017898E-2,2.1135533E-2,5.609653E-2,-8.4676675E-2,3.35388E-2,2.9516777E-2,-5.300023E-2,3.1589147E-2,5.9405126E-2],"split_indices":[2,2,1,2,1,1,2,1,1,1,1,1,2,0,0,1,1,1,2,0,1,1,0,2,2,0,1,0,1,2,1,2,2,1,1,0,0,1,0,2,0,1,1,0,1,0,0,0,0,0,0,0,0,0,0,0,0,0,0,0,0,0,0,0,0,0,0,0,0],"split_type":[0,0,0,0,0,0,0,0,0,0,0,0,0,0,0,0,0,0,0,0,0,0,0,0,0,0,0,0,0,0,0,0,0,0,0,0,0,0,0,0,0,0,0,0,0,0,0,0,0,0,0,0,0,0,0,0,0,0,0,0,0,0,0,0,0,0,0,0,0],"sum_hessian":[7.5876514E2,6.585412E2,1.0022394E2,6.190105E2,3.9530697E1,9.4942795E1,5.2811475E0,4.4824023E2,1.7077028E2,1.2236761E1,2.7293936E1,4.952127E1,4.542152E1,1.3688052E0,3.9123423E0,8.087691E1,3.6736334E2,1.3085806E2,3.9912216E1,2.531576E0,9.705185E0,7.1203694E0,2.0173565E1,2.744905E1,2.2072222E1,2.1773448E0,4.3244175E1,9.745047E0,7.113186E1,3.1511454E1,3.3585187E2,5.917539E1,7.168268E1,9.901867E0,3.001035E1,2.485466E0,7.2197194E0,5.9061866E0,1.2141829E0,2.599127E1,1.4577799E0,9.105211E0,1.29670105E1,4.3120756E0,3.8932102E1,2.202391E1,4.9107952E1,1.4855193E1,1.6656261E1,1.9771849E2,1.3813338E2,3.3287437E1,2.5887949E1,3.6007397E1,3.567528E1,5.639548E0,4.262319E0,2.2591614E1,7.418737E0,2.372805E0,3.5333817E0,1.2968932E1,1.3022339E1,6.238495E0,2.8667161E0,1.054915E1,2.4178598E0,3.2267223E1,6.664879E0],"tree_param":{"num_deleted":"0","num_feature":"3","num_nodes":"69","size_leaf_vector":"1"}},{"base_weights":[3.6271503E-3,-7.816937E-2,7.2830364E-2,-2.0668691E-1,6.680646E-2,1.1313006E-1,-3.1535664E-1,-5.2911073E-2,-1.4233623E-1,2.0895895E-2,3.006315E-1,1.4274228E-1,-1.5830852E-1,-1.8497443E-1,-3.9859518E-1,-8.957066E-2,-2.2704779E-1,6.502084E-2,-2.2714362E-1,3.662712E-1,-2.986702E-1,8.4008195E-2,2.679006E-1,-5.932698E-1,2.9526123E-1,-1.214563E-2,-5.015502E-2,-6.0637455E-2,-1.6956048E-1,-1.7898427E-1,-5.903009E-3,-3.420028E-1,-9.822932E-2,-5.246381E-2,1.3670652E-1,-4.3271077E-1,2.3053084E-1,4.2493045E-1,1.7342651E-1,-3.96139E-2,-4.111134E-3,-2.5969073E-2,2.262046E-1,3.2249612E-1,9.513486E-2,-3.134403E-1,-6.8010576E-2,3.6727455E-1,-3.655871E-2,-2.3322548E-1,4.722642E-2,4.0108364E-2,-3.7279156E-1,2.5848192E-3,-3.5246532E-2,-6.2946132E-3,8.706452E-3,-2.1788368E-2,-3.9709944E-2,-3.7185145E-3,-5.9445467E-2,-4.344281E-2,5.2057453E-3,1.0844478E-2,2.765168E-2,-5.721378E-2,-2.5487855E-2,2.5084808E-3,2.7758747E-2,2.960307E-2,4.8856664E-2,4.782132E-2,-1.510251E-2,2.2350578E-2,-1.6901186E-2,2.7201151E-2,-2.8595498E-2,2.5349174E-2,4.5702484E-2,6.6099525E-3,1.893508E-2,-4.955572E-2,9.125165E-3,1.4840326E-3,5.7691425E-2,-1.2644457E-2,-4.227589E-2,-5.0570846E-2,-1.5398453E-2],"categories":[],"categories_nodes":[],"categories_segments":[],"categories_sizes":[],"default_left":[0,0,0,0,0,0,0,0,0,0,0,0,0,0,0,0,0,0,0,0,0,0,0,0,0,0,0,0,0,0,0,0,0,0,0,0,0,0,0,0,0,0,0,0,0,0,0,0,0,0,0,0,0,0,0,0,0,0,0,0,0,0,0,0,0,0,0,0,0,0,0,0,0,0,0,0,0,0,0,0,0,0,0,0,0,0,0,0,0],"id":23,"left_children":[1,3,5,7,9,11,13,-1,15,17,19,21,23,25,27,29,31,33,35,37,39,41,43,45,47,49,-1,-1,51,53,55,57,59,61,63,65,67,69,71,-1,-1,73,75,77,79,81,-1,83,-1,85,-1,-1,87,-1,-1,-1,-1,-1,-1,-1,-1,-1,-1,-1,-1,-1,-1,-1,-1,-1,-1,-1,-1,-1,-1,-1,-1,-1,-1,-1,-1,-1,-1,-1,-1,-1,-1,-1,-1],"loss_changes":[4.3648133E0,6.5985527E0,6.5696573E0,3.8167162E0,1.784621E0,3.0699668E0,3.554616E-1,0E0,6.847477E-1,1.5527499E0,1.1835296E0,2.494197E0,7.6258416E0,9.3910676E-1,1.0046248E0,7.3844373E-1,8.533063E-1,1.018458E0,2.117392E0,2.0977664E-1,6.5208554E-2,3.6725821E0,9.963999E-1,2.6335382E-1,1.0458653E0,1.4166384E0,0E0,0E0,1.594255E0,1.7058902E0,2.8177485E-1,1.2715626E-1,8.7591976E-1,1.8680993E0,2.6577246E-1,2.2971606E-1,6.360304E-2,7.3227882E-3,8.172653E-1,0E0,0E0,4.787877E0,2.479167E0,6.4837265E-1,6.289321E-2,5.242176E-1,0E0,1.3044949E0,0E0,1.2962264E-1,0E0,0E0,2.0436013E-1,0E0,0E0,0E0,0E0,0E0,0E0,0E0,0E0,0E0,0E0,0E0,0E0,0E0,0E0,0E0,0E0,0E0,0E0,0E0,0E0,0E0,0E0,0E0,0E0,0E0,0E0,0E0,0E0,0E0,0E0,0E0,0E0,0E0,0E0,0E0,0E0],"parents":[2147483647,0,0,1,1,2,2,3,3,4,4,5,5,6,6,8,8,9,9,10,10,11,11,12,12,13,13,14,14,15,15,16,16,17,17,18,18,19,19,20,20,21,21,22,22,23,23,24,24,25,25,28,28,29,29,30,30,31,31,32,32,33,33,34,34,35,35,36,36,37,37,38,38,41,41,42,42,43,43,44,44,45,45,47,47,49,49,52,52],"right_children":[2,4,6,8,10,12,14,-1,16,18,20,22,24,26,28,30,32,34,36,38,40,42,44,46,48,50,-1,-1,52,54,56,58,60,62,64,66,68,70,72,-1,-1,74,76,78,80,82,-1,84,-1,86,-1,-1,88,-1,-1,-1,-1,-1,-1,-1,-1,-1,-1,-1,-1,-1,-1,-1,-1,-1,-1,-1,-1,-1,-1,-1,-1,-1,-1,-1,-1,-1,-1,-1,-1,-1,-1,-1,-1],"split_conditions":[4.268383E0,5E0,4.838021E0,3.4935462E0,1.7E1,8E0,2E0,-5.2911073E-2,3E0,1.1E1,2.6E1,4.7382345E0,1E1,4.9467826E0,5.035974E0,2E0,4E0,3.4935462E0,4.0479426E0,2.2E1,2.9E1,3E0,4.8012457E0,4.4969172E0,4.6650233E0,4.932851E0,-5.015502E-2,-6.0637455E-2,5.0477467E0,3.862525E0,4.0479426E0,3.862525E0,4.1704617E0,7E0,4.1704617E0,1.5E1,4.1704617E0,1.8E1,3.4935462E0,-3.96139E-2,-4.111134E-3,4.3421173E0,4.6650233E0,4.781605E0,5E0,4.452641E0,-6.8010576E-2,4.537373E0,-3.655871E-2,4.8556194E0,4.722642E-2,4.0108364E-2,5.2396207E0,2.5848192E-3,-3.5246532E-2,-6.2946132E-3,8.706452E-3,-2.1788368E-2,-3.9709944E-2,-3.7185145E-3,-5.9445467E-2,-4.344281E-2,5.2057453E-3,1.0844478E-2,2.765168E-2,-5.721378E-2,-2.5487855E-2,2.5084808E-3,2.7758747E-2,2.960307E-2,4.8856664E-2,4.782132E-2,-1.510251E-2,2.2350578E-2,-1.6901186E-2,2.7201151E-2,-2.8595498E-2,2.5349174E-2,4.5702484E-2,6.6099525E-3,1.893508E-2,-4.955572E-2,9.125165E-3,1.4840326E-3,5.7691425E-2,-1.2644457E-2,-4.227589E-2,-5.0570846E-2,-1.5398453E-2],"split_indices":[0,2,0,0,2,2,2,0,2,2,2,0,2,0,0,2,2,0,0,2,2,2,0,0,0,0,0,0,0,0,0,0,0,2,0,2,0,2,0,0,0,0,0,0,2,0,0,0,0,0,0,0,0,0,0,0,0,0,0,0,0,0,0,0,0,0,0,0,0,0,0,0,0,0,0,0,0,0,0,0,0,0,0,0,0,0,0,0,0],"split_type":[0,0,0,0,0,0,0,0,0,0,0,0,0,0,0,0,0,0,0,0,0,0,0,0,0,0,0,0,0,0,0,0,0,0,0,0,0,0,0,0,0,0,0,0,0,0,0,0,0,0,0,0,0,0,0,0,0,0,0,0,0,0,0,0,0,0,0,0,0,0,0,0,0,0,0,0,0,0,0,0,0,0,0,0,0,0,0,0,0],"sum_hessian":[7.6908344E2,3.5241174E2,4.166717E2,1.8658395E2,1.6582779E2,3.7812512E2,3.854656E1,2.9841791E1,1.5674216E2,1.3952249E2,2.6305292E1,3.4135916E2,3.6765976E1,1.6275444E1,2.2271114E1,9.785011E1,5.889204E1,1.1907715E2,2.0445347E1,2.4059017E1,2.2462757E0,2.3346861E2,1.0789054E2,1.8610756E1,1.815522E1,1.11995945E1,5.07585E0,1.0813566E1,1.1457548E1,4.6750134E1,5.109998E1,3.0246105E1,2.8645937E1,4.5225636E1,7.385152E1,1.4146092E1,6.299255E0,1.7524847E1,6.5341706E0,1.2392501E0,1.0070256E0,1.3210985E2,1.01358765E2,8.1324585E1,2.6565958E1,5.499176E0,1.3111581E1,1.6771816E1,1.3834041E0,8.046012E0,3.153583E0,2.7532568E0,8.704291E0,2.182818E1,2.4921955E1,3.1868807E1,1.9231174E1,1.0821811E1,1.9424295E1,2.64652E1,2.180735E0,9.038569E0,3.6187065E1,6.291027E1,1.0941245E1,6.68641E0,7.459682E0,1.4596407E0,4.839614E0,7.6602917E0,9.864555E0,3.1248264E0,3.409344E0,4.7938984E1,8.417086E1,9.3467995E1,7.8907695E0,5.5659313E1,2.5665272E1,2.1608313E1,4.9576464E0,3.6376534E0,1.8615229E0,6.654851E0,1.0116965E1,6.2128825E0,1.8331292E0,4.5992274E0,4.1050634E0],"tree_param":{"num_deleted":"0","num_feature":"3","num_nodes":"89","size_leaf_vector":"1"}},{"base_weights":[2.2209978E-2,3.7724297E-2,-3.534988E-1,9.591849E-3,1.7292696E-1,-4.8742093E-2,-4.1227573E-1,5.209783E-2,-4.731727E-1,2.2784325E-1,5.0666355E-2,-4.263821E-2,2.8345719E-2,-5.6958843E-2,-3.1955168E-1,6.683343E-2,-4.1028532E-1,-6.0122054E-2,1.7914571E-1,1.7215173E-1,3.1958457E-2,-3.176966E-1,1.6849072E-1,1.529331E-2,-4.006837E-1,-5.863001E-4,1.4238279E-1,-1.1908151E-1,-6.3717864E-2,4.47911E-3,2.1000825E-2,-4.666027E-2,2.0272188E-1,2.4976585E-2,-5.1518787E-2,1.1248812E-1,3.0626653E-2,-1.8508062E-1,-5.2692503E-2,3.2106934E-3,-6.0609747E-2,-2.119336E-3,2.065661E-2,1.8699983E-2,-3.580399E-2,4.995759E-2,1.4920595E-2,1.72328E-2,-4.1519804E-3,-4.8029967E-2,2.673695E-2],"categories":[],"categories_nodes":[],"categories_segments":[],"categories_sizes":[],"default_left":[0,0,0,0,0,0,0,0,0,0,0,0,0,0,0,0,0,0,0,0,0,0,0,0,0,0,0,0,0,0,0,0,0,0,0,0,0,0,0,0,0,0,0,0,0,0,0,0,0,0,0],"id":24,"left_children":[1,3,5,7,9,11,13,15,17,19,21,-1,-1,-1,23,25,27,-1,29,31,-1,33,35,-1,37,39,41,43,-1,-1,-1,-1,45,-1,-1,47,-1,49,-1,-1,-1,-1,-1,-1,-1,-1,-1,-1,-1,-1,-1],"loss_changes":[4.4075294E0,2.755467E0,5.1713777E-1,1.2359121E1,8.263233E-1,8.7146586E-1,1.8277836E-1,3.7976232E0,4.178871E0,3.834901E-1,1.7881176E0,0E0,0E0,0E0,7.51757E-1,2.7358818E0,1.0625381E0,0E0,2.6950449E-2,1.1797743E0,0E0,1.2529447E0,2.0422608E-1,0E0,3.2840824E-1,5.657864E0,2.6636353E0,7.087932E-1,0E0,0E0,0E0,0E0,7.790837E-1,0E0,0E0,2.2441012E-1,0E0,1.1062268E0,0E0,0E0,0E0,0E0,0E0,0E0,0E0,0E0,0E0,0E0,0E0,0E0,0E0],"parents":[2147483647,0,0,1,1,2,2,3,3,4,4,5,5,6,6,7,7,8,8,9,9,10,10,14,14,15,15,16,16,18,18,19,19,21,21,22,22,24,24,25,25,26,26,27,27,32,32,35,35,37,37],"right_children":[2,4,6,8,10,12,14,16,18,20,22,-1,-1,-1,24,26,28,-1,30,32,-1,34,36,-1,38,40,42,44,-1,-1,-1,-1,46,-1,-1,48,-1,50,-1,-1,-1,-1,-1,-1,-1,-1,-1,-1,-1,-1,-1],"split_conditions":[4.8556194E0,4.7382345E0,3.2142856E0,5E0,4.8012457E0,3.125E0,4.3076925E0,4.6650233E0,4.690822E0,4.781605E0,4.625E0,-4.263821E-2,2.8345719E-2,-5.6958843E-2,4.3333335E0,4.1704617E0,3.764706E0,-6.0122054E-2,4.7146726E0,3.2142856E0,3.1958457E-2,3.125E0,4.838021E0,1.529331E-2,4.9467826E0,4.5E0,3.7222223E0,4.690822E0,-6.3717864E-2,4.47911E-3,2.1000825E-2,-4.666027E-2,4.142857E0,2.4976585E-2,-5.1518787E-2,4.819993E0,3.0626653E-2,4.932851E0,-5.2692503E-2,3.2106934E-3,-6.0609747E-2,-2.119336E-3,2.065661E-2,1.8699983E-2,-3.580399E-2,4.995759E-2,1.4920595E-2,1.72328E-2,-4.1519804E-3,-4.8029967E-2,2.673695E-2],"split_indices":[0,0,1,1,0,1,1,0,0,0,1,0,0,0,1,0,1,0,0,1,0,1,0,0,0,1,1,0,0,0,0,0,1,0,0,0,0,0,0,0,0,0,0,0,0,0,0,0,0,0,0],"split_type":[0,0,0,0,0,0,0,0,0,0,0,0,0,0,0,0,0,0,0,0,0,0,0,0,0,0,0,0,0,0,0,0,0,0,0,0,0,0,0,0,0,0,0,0,0,0,0,0,0,0,0],"sum_hessian":[7.528678E2,7.2387604E2,2.8991762E1,6.0008386E2,1.2379219E2,4.9832153E0,2.4008547E1,5.5234375E2,4.774014E1,8.482667E1,3.896552E1,2.1994243E0,2.783791E0,6.9961963E0,1.701235E1,5.361139E2,1.6229849E1,3.9972088E1,7.7680497E0,5.4574028E1,3.025264E1,9.031941E0,2.9933577E1,2.3634503E0,1.4648901E1,2.8382376E2,2.5229013E2,7.775413E0,8.454435E0,1.9089754E0,5.859074E0,1.8411149E0,5.2732914E1,2.2634768E0,6.7684646E0,2.2574167E1,7.359409E0,6.3204727E0,8.328427E0,2.701828E2,1.3640946E1,7.1284874E1,1.8100525E2,3.504256E0,4.2711573E0,6.781377E0,4.5951538E1,1.6171692E1,6.4024754E0,3.78757E0,2.532903E0],"tree_param":{"num_deleted":"0","num_feature":"3","num_nodes":"51","size_leaf_vector":"1"}},{"base_weights":[5.255797E-4,1.5949655E-2,-3.6927205E-1,6.188521E-2,-7.19416E-2,-5.8162075E-2,-1.9356032E-1,-8.108237E-2,9.0625055E-2,-1.5295056E-1,2.0446803E-1,2.3995688E-2,-2.8455952E-1,3.711854E-2,-4.8687902E-1,1.03414446E-1,-2.7725706E-1,-6.4841127E-3,-3.164461E-1,-5.0191432E-2,2.3674828E-1,-4.560102E-2,-5.1185038E-2,-5.4481115E-2,3.0571347E-1,-6.0147077E-2,-3.4665322E-1,4.5995913E-2,1.6495864E-1,9.961358E-2,-6.506613E-2,1.06727794E-1,-2.9725322E-1,-5.765145E-1,1.5258659E-3,2.9755348E-1,4.3049872E-2,-4.646111E-2,3.5496447E-2,2.3716705E-2,-1.596884E-2,4.3174427E-2,6.282121E-3,2.8564347E-2,-5.4482132E-2,8.286579E-3,-1.7977787E-2,4.2986568E-2,7.198588E-3,-4.6463933E-2,3.4907296E-2,-6.538332E-2,1.4915923E-2,-1.8663442E-2,-5.5324007E-2,-3.8096517E-2,-6.0649198E-2,1.0825243E-2,-2.7130987E-3,1.77346E-2,4.8439723E-2,1.7034007E-2,-3.21372E-4],"categories":[],"categories_nodes":[],"categories_segments":[],"categories_sizes":[],"default_left":[0,0,0,0,0,0,0,0,0,0,0,0,0,0,0,0,0,0,0,0,0,0,0,0,0,0,0,0,0,0,0,0,0,0,0,0,0,0,0,0,0,0,0,0,0,0,0,0,0,0,0,0,0,0,0,0,0,0,0,0,0,0,0],"id":25,"left_children":[1,3,5,7,9,-1,11,13,15,17,19,-1,21,23,25,27,29,31,33,-1,35,37,-1,39,41,-1,43,45,47,49,-1,51,53,55,57,59,61,-1,-1,-1,-1,-1,-1,-1,-1,-1,-1,-1,-1,-1,-1,-1,-1,-1,-1,-1,-1,-1,-1,-1,-1,-1,-1],"loss_changes":[4.1998386E0,2.85808E0,9.8746204E-1,1.9168925E0,5.4740644E0,0E0,7.6384205E-1,3.7744496E0,1.8514953E0,4.5131307E0,1.3848121E0,0E0,7.9299045E-1,1.5316602E0,7.650232E-2,1.3180585E0,1.9347558E0,3.33926E0,7.3669405E0,0E0,6.2052727E-1,1.5789467E0,0E0,1.4728404E0,4.5687556E-1,0E0,1.4508052E0,1.6419502E0,4.418956E0,1.2151324E0,0E0,2.455122E0,7.015641E-1,5.6200027E-2,1.2855881E-1,8.2949567E-1,8.308949E-2,0E0,0E0,0E0,0E0,0E0,0E0,0E0,0E0,0E0,0E0,0E0,0E0,0E0,0E0,0E0,0E0,0E0,0E0,0E0,0E0,0E0,0E0,0E0,0E0,0E0,0E0],"parents":[2147483647,0,0,1,1,2,2,3,3,4,4,6,6,7,7,8,8,9,9,10,10,12,12,13,13,14,14,15,15,16,16,17,17,18,18,20,20,21,21,23,23,24,24,26,26,27,27,28,28,29,29,31,31,32,32,33,33,34,34,35,35,36,36],"right_children":[2,4,6,8,10,-1,12,14,16,18,20,-1,22,24,26,28,30,32,34,-1,36,38,-1,40,42,-1,44,46,48,50,-1,52,54,56,58,60,62,-1,-1,-1,-1,-1,-1,-1,-1,-1,-1,-1,-1,-1,-1,-1,-1,-1,-1,-1,-1,-1,-1,-1,-1,-1,-1],